double predictEggproduction(List<double> input) {
    double var0;
    if (input[0] < 0.7735849) {
        if (input[4] < 0.6830986) {
            var0 = -111.27793;
        } else {
            var0 = -62.60771;
        }
    } else {
        if (input[0] < 0.9622642) {
            if (input[2] < 0.71428573) {
                if (input[1] < 0.8333333) {
                    if (input[5] < 0.275) {
                        if (input[5] < 0.21875) {
                            var0 = 8.995448;
                        } else {
                            var0 = 35.49387;
                        }
                    } else {
                        if (input[0] < 0.9433962) {
                            var0 = -30.186558;
                        } else {
                            var0 = -6.4532228;
                        }
                    }
                } else {
                    var0 = 49.013447;
                }
            } else {
                if (input[2] < 1.0) {
                    if (input[3] < 0.4512195) {
                        if (input[0] < 0.8490566) {
                            var0 = 31.66033;
                        } else {
                            var0 = 63.755413;
                        }
                    } else {
                        if (input[2] < 0.7714286) {
                            var0 = 10.856367;
                        } else {
                            var0 = 26.123758;
                        }
                    }
                } else {
                    var0 = -12.127392;
                }
            }
        } else {
            if (input[4] < 0.7253521) {
                if (input[4] < 0.5070422) {
                    var0 = 41.280113;
                } else {
                    if (input[0] < 1.0) {
                        var0 = 80.30557;
                    } else {
                        var0 = 51.413445;
                    }
                }
            } else {
                if (input[1] < 0.5) {
                    var0 = 47.68011;
                } else {
                    var0 = 28.480112;
                }
            }
        }
    }
    double var1;
    if (input[0] < 0.7735849) {
        if (input[0] < 0.14150943) {
            if (input[4] < 0.6830986) {
                var1 = -59.554348;
            } else {
                var1 = -44.019047;
            }
        } else {
            var1 = -88.585434;
        }
    } else {
        if (input[0] < 0.9622642) {
            if (input[1] < 0.16666667) {
                if (input[3] < 0.4512195) {
                    if (input[5] < 0.175) {
                        var1 = 41.121925;
                    } else {
                        var1 = 26.440767;
                    }
                } else {
                    var1 = 14.873404;
                }
            } else {
                if (input[4] < 0.6619718) {
                    if (input[5] < 0.21875) {
                        if (input[3] < 0.5487805) {
                            var1 = 17.288937;
                        } else {
                            var1 = -9.406082;
                        }
                    } else {
                        if (input[4] < 0.556338) {
                            var1 = 53.87868;
                        } else {
                            var1 = 32.39525;
                        }
                    }
                } else {
                    if (input[0] < 0.9150943) {
                        if (input[0] < 0.8584906) {
                            var1 = 4.519947;
                        } else {
                            var1 = 21.844208;
                        }
                    } else {
                        if (input[5] < 0.2875) {
                            var1 = -27.41762;
                        } else {
                            var1 = 4.0842776;
                        }
                    }
                }
            }
        } else {
            if (input[4] < 0.7253521) {
                if (input[4] < 0.5070422) {
                    var1 = 30.27207;
                } else {
                    if (input[5] < 0.15625) {
                        var1 = 44.868164;
                    } else {
                        var1 = 64.516205;
                    }
                }
            } else {
                if (input[1] < 0.5) {
                    var1 = 34.96543;
                } else {
                    var1 = 20.885418;
                }
            }
        }
    }
    double var2;
    if (input[0] < 0.7735849) {
        if (input[0] < 0.14150943) {
            if (input[4] < 0.6830986) {
                var2 = -42.739006;
            } else {
                var2 = -30.949474;
            }
        } else {
            var2 = -63.072823;
        }
    } else {
        if (input[0] < 0.9622642) {
            if (input[1] < 0.16666667) {
                if (input[3] < 0.4512195) {
                    if (input[5] < 0.175) {
                        var2 = 29.511019;
                    } else {
                        var2 = 18.7489;
                    }
                } else {
                    var2 = 10.673851;
                }
            } else {
                if (input[4] < 0.6619718) {
                    if (input[1] < 0.33333334) {
                        if (input[0] < 0.8773585) {
                            var2 = 12.997949;
                        } else {
                            var2 = -35.14372;
                        }
                    } else {
                        if (input[5] < 0.21875) {
                            var2 = 11.247675;
                        } else {
                            var2 = 26.429817;
                        }
                    }
                } else {
                    if (input[0] < 0.9528302) {
                        if (input[3] < 0.40243903) {
                            var2 = 2.1298592;
                        } else {
                            var2 = 14.60552;
                        }
                    } else {
                        if (input[2] < 0.2857143) {
                            var2 = -5.8214846;
                        } else {
                            var2 = -22.340658;
                        }
                    }
                }
            }
        } else {
            if (input[3] < 0.3902439) {
                var2 = 44.9796;
            } else {
                if (input[3] < 0.41463414) {
                    var2 = 15.315984;
                } else {
                    var2 = 30.528433;
                }
            }
        }
    }
    double var3;
    if (input[0] < 0.7735849) {
        if (input[4] < 0.5140845) {
            var3 = -50.897877;
        } else {
            if (input[4] < 0.6830986) {
                var3 = -31.153912;
            } else {
                var3 = -21.760355;
            }
        }
    } else {
        if (input[0] < 0.9622642) {
            if (input[1] < 0.16666667) {
                if (input[3] < 0.4512195) {
                    if (input[5] < 0.175) {
                        var3 = 21.178505;
                    } else {
                        if (input[4] < 0.02112676) {
                            var3 = 9.053452;
                        } else {
                            var3 = 14.289727;
                        }
                    }
                } else {
                    var3 = 7.6600647;
                }
            } else {
                if (input[4] < 0.6619718) {
                    if (input[1] < 0.33333334) {
                        if (input[0] < 0.8773585) {
                            var3 = 9.585993;
                        } else {
                            var3 = -25.77207;
                        }
                    } else {
                        if (input[5] < 0.21875) {
                            var3 = 7.9451647;
                        } else {
                            var3 = 18.662685;
                        }
                    }
                } else {
                    if (input[0] < 0.9150943) {
                        if (input[2] < 0.5714286) {
                            var3 = 16.212265;
                        } else {
                            var3 = 2.4879024;
                        }
                    } else {
                        if (input[5] < 0.2875) {
                            var3 = -16.822887;
                        } else {
                            var3 = 1.6909986;
                        }
                    }
                }
            }
        } else {
            if (input[3] < 0.24390244) {
                var3 = 38.666473;
            } else {
                if (input[0] < 0.990566) {
                    var3 = 25.74682;
                } else {
                    if (input[3] < 0.41463414) {
                        var3 = 11.231706;
                    } else {
                        var3 = 17.696321;
                    }
                }
            }
        }
    }
    double var4;
    if (input[0] < 0.7735849) {
        if (input[4] < 0.5140845) {
            var4 = -36.526726;
        } else {
            if (input[4] < 0.69014084) {
                var4 = -20.767855;
            } else {
                var4 = -14.655715;
            }
        }
    } else {
        if (input[0] < 0.9622642) {
            if (input[2] < 1.0) {
                if (input[3] < 0.5731707) {
                    if (input[4] < 0.556338) {
                        if (input[1] < 0.5) {
                            var4 = 7.1817675;
                        } else {
                            var4 = 23.49132;
                        }
                    } else {
                        if (input[1] < 0.8333333) {
                            var4 = 4.8161983;
                        } else {
                            var4 = 14.379768;
                        }
                    }
                } else {
                    if (input[1] < 0.33333334) {
                        var4 = -18.899511;
                    } else {
                        if (input[5] < 0.13125) {
                            var4 = 15.748364;
                        } else {
                            var4 = 0.59973174;
                        }
                    }
                }
            } else {
                var4 = -11.342583;
            }
        } else {
            if (input[3] < 0.24390244) {
                var4 = 28.355406;
            } else {
                if (input[0] < 0.990566) {
                    var4 = 18.331736;
                } else {
                    if (input[2] < 0.42857143) {
                        var4 = 9.305033;
                    } else {
                        var4 = 13.584617;
                    }
                }
            }
        }
    }
    double var5;
    if (input[0] < 0.7735849) {
        if (input[4] < 0.5140845) {
            var5 = -26.213293;
        } else {
            if (input[4] < 0.6830986) {
                var5 = -16.200445;
            } else {
                if (input[4] < 0.76760566) {
                    var5 = -11.462182;
                } else {
                    var5 = -8.714844;
                }
            }
        }
    } else {
        if (input[0] < 0.9622642) {
            if (input[1] < 0.16666667) {
                if (input[3] < 0.4512195) {
                    if (input[5] < 0.175) {
                        var5 = 13.83881;
                    } else {
                        if (input[4] < 0.02112676) {
                            var5 = 4.7240562;
                        } else {
                            var5 = 8.333052;
                        }
                    }
                } else {
                    var5 = 4.137374;
                }
            } else {
                if (input[4] < 0.6619718) {
                    if (input[5] < 0.2125) {
                        if (input[2] < 0.14285715) {
                            var5 = 8.877489;
                        } else {
                            var5 = -3.2421846;
                        }
                    } else {
                        if (input[0] < 0.8490566) {
                            var5 = 2.0713925;
                        } else {
                            var5 = 13.268375;
                        }
                    }
                } else {
                    if (input[0] < 0.9150943) {
                        if (input[2] < 1.0) {
                            var5 = 4.353926;
                        } else {
                            var5 = -8.36517;
                        }
                    } else {
                        if (input[2] < 0.5714286) {
                            var5 = -10.891055;
                        } else {
                            var5 = 5.72793;
                        }
                    }
                }
            }
        } else {
            if (input[3] < 0.24390244) {
                var5 = 20.793945;
            } else {
                if (input[3] < 0.8292683) {
                    if (input[2] < 0.42857143) {
                        var5 = 7.710762;
                    } else {
                        var5 = 10.42786;
                    }
                } else {
                    var5 = 16.899155;
                }
            }
        }
    }
    double var6;
    if (input[0] < 0.7735849) {
        if (input[4] < 0.5140845) {
            var6 = -18.811903;
        } else {
            if (input[4] < 0.7183099) {
                var6 = -10.342754;
            } else {
                if (input[3] < 0.47560975) {
                    var6 = -7.35623;
                } else {
                    var6 = -5.362569;
                }
            }
        }
    } else {
        if (input[0] < 0.9622642) {
            if (input[4] < 0.556338) {
                if (input[4] < 0.5422535) {
                    if (input[4] < 0.471831) {
                        if (input[4] < 0.02112676) {
                            var6 = 3.464323;
                        } else {
                            var6 = 8.908284;
                        }
                    } else {
                        if (input[4] < 0.5) {
                            var6 = -0.9947983;
                        } else {
                            var6 = 4.5924063;
                        }
                    }
                } else {
                    var6 = 17.68379;
                }
            } else {
                if (input[4] < 0.57042253) {
                    if (input[0] < 0.8490566) {
                        if (input[3] < 0.09756097) {
                            var6 = -0.5960287;
                        } else {
                            var6 = 3.4039714;
                        }
                    } else {
                        var6 = -12.995053;
                    }
                } else {
                    if (input[0] < 0.9150943) {
                        if (input[3] < 0.2682927) {
                            var6 = -0.69972956;
                        } else {
                            var6 = 5.7029724;
                        }
                    } else {
                        if (input[4] < 0.6830986) {
                            var6 = 4.6080613;
                        } else {
                            var6 = -7.7544146;
                        }
                    }
                }
            }
        } else {
            if (input[3] < 0.24390244) {
                var6 = 15.248894;
            } else {
                if (input[3] < 0.8292683) {
                    if (input[1] < 0.6666667) {
                        if (input[3] < 0.41463414) {
                            var6 = 3.6990235;
                        } else {
                            var6 = 5.918865;
                        }
                    } else {
                        var6 = 7.5581956;
                    }
                } else {
                    var6 = 12.392709;
                }
            }
        }
    }
    double var7;
    if (input[0] < 0.7735849) {
        if (input[4] < 0.6830986) {
            if (input[3] < 0.5365854) {
                if (input[0] < 0.094339624) {
                    var7 = -11.776889;
                } else {
                    if (input[0] < 0.14150943) {
                        var7 = -4.3102217;
                    } else {
                        var7 = -8.839333;
                    }
                }
            } else {
                var7 = -16.483627;
            }
        } else {
            if (input[4] < 0.7605634) {
                var7 = -5.7068872;
            } else {
                var7 = -4.3856277;
            }
        }
    } else {
        if (input[0] < 0.9622642) {
            if (input[1] < 0.16666667) {
                if (input[3] < 0.4512195) {
                    if (input[5] < 0.175) {
                        var7 = 8.32114;
                    } else {
                        if (input[4] < 0.02112676) {
                            var7 = 2.540495;
                        } else {
                            var7 = 4.704258;
                        }
                    }
                } else {
                    var7 = 1.358927;
                }
            } else {
                if (input[5] < 0.23125) {
                    if (input[5] < 0.13125) {
                        if (input[0] < 0.8490566) {
                            var7 = -3.237994;
                        } else {
                            var7 = 7.9958596;
                        }
                    } else {
                        if (input[4] < 0.6619718) {
                            var7 = -0.5927246;
                        } else {
                            var7 = -7.13909;
                        }
                    }
                } else {
                    if (input[5] < 0.275) {
                        if (input[4] < 0.556338) {
                            var7 = 12.9681;
                        } else {
                            var7 = 5.339354;
                        }
                    } else {
                        if (input[5] < 0.2875) {
                            var7 = -7.3021083;
                        } else {
                            var7 = 3.3831375;
                        }
                    }
                }
            }
        } else {
            if (input[3] < 0.24390244) {
                var7 = 11.182552;
            } else {
                if (input[3] < 0.8292683) {
                    if (input[2] < 0.42857143) {
                        if (input[0] < 0.990566) {
                            var7 = 4.733594;
                        } else {
                            var7 = 3.142762;
                        }
                    } else {
                        var7 = 5.4052267;
                    }
                } else {
                    var7 = 9.087956;
                }
            }
        }
    }
    double var8;
    if (input[0] < 0.7735849) {
        if (input[4] < 0.6830986) {
            if (input[3] < 0.5365854) {
                if (input[0] < 0.094339624) {
                    var8 = -8.636394;
                } else {
                    if (input[0] < 0.14150943) {
                        var8 = -3.16084;
                    } else {
                        var8 = -6.343515;
                    }
                }
            } else {
                var8 = -12.087989;
            }
        } else {
            if (input[4] < 0.7605634) {
                var8 = -4.0248513;
            } else {
                var8 = -3.102032;
            }
        }
    } else {
        if (input[0] < 0.9622642) {
            if (input[4] < 0.556338) {
                if (input[4] < 0.5422535) {
                    if (input[4] < 0.471831) {
                        if (input[4] < 0.02112676) {
                            var8 = 1.863021;
                        } else {
                            var8 = 4.6000404;
                        }
                    } else {
                        if (input[4] < 0.49295774) {
                            var8 = -2.071065;
                        } else {
                            var8 = 2.1582189;
                        }
                    }
                } else {
                    var8 = 9.509961;
                }
            } else {
                if (input[4] < 0.57042253) {
                    if (input[0] < 0.8490566) {
                        if (input[3] < 0.09756097) {
                            var8 = -1.339258;
                        } else {
                            var8 = 1.5940757;
                        }
                    } else {
                        var8 = -9.371647;
                    }
                } else {
                    if (input[0] < 0.9150943) {
                        if (input[3] < 0.2682927) {
                            var8 = -0.43229887;
                        } else {
                            var8 = 3.2887404;
                        }
                    } else {
                        if (input[4] < 0.6830986) {
                            var8 = 2.287953;
                        } else {
                            var8 = -4.4595823;
                        }
                    }
                }
            }
        } else {
            if (input[3] < 0.24390244) {
                var8 = 8.200521;
            } else {
                if (input[3] < 0.8292683) {
                    if (input[0] < 0.990566) {
                        var8 = 4.1215878;
                    } else {
                        if (input[3] < 0.41463414) {
                            var8 = 1.8745443;
                        } else {
                            var8 = 3.1543126;
                        }
                    }
                } else {
                    var8 = 6.664519;
                }
            }
        }
    }
    double var9;
    if (input[0] < 0.8396226) {
        if (input[4] < 0.6830986) {
            if (input[1] < 0.16666667) {
                if (input[3] < 0.4512195) {
                    var9 = 2.0810852;
                } else {
                    var9 = 0.024792481;
                }
            } else {
                if (input[5] < 0.29375) {
                    if (input[0] < 0.6886792) {
                        var9 = -8.045939;
                    } else {
                        var9 = -4.8897524;
                    }
                } else {
                    if (input[3] < 0.47560975) {
                        if (input[0] < 0.14150943) {
                            var9 = -2.3179362;
                        } else {
                            var9 = 0.070092775;
                        }
                    } else {
                        var9 = -4.968197;
                    }
                }
            }
        } else {
            if (input[0] < 0.094339624) {
                if (input[3] < 0.5731707) {
                    var9 = -2.6765792;
                } else {
                    var9 = -1.5045899;
                }
            } else {
                if (input[3] < 0.2682927) {
                    if (input[3] < 0.23170732) {
                        var9 = 1.4141724;
                    } else {
                        var9 = -3.5696414;
                    }
                } else {
                    if (input[3] < 0.37804878) {
                        var9 = 4.4384403;
                    } else {
                        var9 = 0.024792481;
                    }
                }
            }
        }
    } else {
        if (input[2] < 1.0) {
            if (input[3] < 0.4512195) {
                if (input[4] < 0.8873239) {
                    if (input[5] < 0.83125) {
                        if (input[0] < 0.9150943) {
                            var9 = 4.914103;
                        } else {
                            var9 = 1.862223;
                        }
                    } else {
                        if (input[3] < 0.09756097) {
                            var9 = -0.96675116;
                        } else {
                            var9 = 1.3309913;
                        }
                    }
                } else {
                    if (input[4] < 0.9366197) {
                        if (input[5] < 0.05625) {
                            var9 = -6.2468724;
                        } else {
                            var9 = 0.36039048;
                        }
                    } else {
                        if (input[1] < 0.16666667) {
                            var9 = 4.2947206;
                        } else {
                            var9 = 2.1531281;
                        }
                    }
                }
            } else {
                if (input[1] < 0.33333334) {
                    if (input[0] < 0.8490566) {
                        var9 = 0.046279296;
                    } else {
                        var9 = -6.8725266;
                    }
                } else {
                    if (input[5] < 0.16875) {
                        if (input[4] < 0.5915493) {
                            var9 = 1.6207653;
                        } else {
                            var9 = 5.3773026;
                        }
                    } else {
                        if (input[4] < 0.6830986) {
                            var9 = 1.5962824;
                        } else {
                            var9 = -2.512055;
                        }
                    }
                }
            }
        } else {
            var9 = -3.9981904;
        }
    }
    double var10;
    if (input[0] < 0.8396226) {
        if (input[4] < 0.6830986) {
            if (input[1] < 0.16666667) {
                if (input[3] < 0.4512195) {
                    if (input[4] < 0.02112676) {
                        var10 = 0.45633546;
                    } else {
                        var10 = 1.8462404;
                    }
                } else {
                    var10 = 0.02107544;
                }
            } else {
                if (input[3] < 0.5365854) {
                    if (input[4] < 0.6056338) {
                        if (input[3] < 0.47560975) {
                            var10 = -1.375455;
                        } else {
                            var10 = -3.160702;
                        }
                    } else {
                        var10 = -4.4943132;
                    }
                } else {
                    var10 = -6.7189455;
                }
            }
        } else {
            if (input[0] < 0.094339624) {
                if (input[4] < 0.7394366) {
                    var10 = -2.2354937;
                } else {
                    if (input[3] < 0.46341464) {
                        if (input[1] < 0.33333334) {
                            var10 = -1.4335548;
                        } else {
                            var10 = -1.9369923;
                        }
                    } else {
                        var10 = -1.1439741;
                    }
                }
            } else {
                if (input[3] < 0.2682927) {
                    if (input[3] < 0.23170732) {
                        var10 = 1.1313355;
                    } else {
                        var10 = -3.034186;
                    }
                } else {
                    if (input[3] < 0.37804878) {
                        var10 = 3.4397829;
                    } else {
                        var10 = 0.02107544;
                    }
                }
            }
        }
    } else {
        if (input[0] < 0.9622642) {
            if (input[2] < 0.8) {
                if (input[5] < 0.275) {
                    if (input[5] < 0.2125) {
                        if (input[3] < 0.23170732) {
                            var10 = 3.0407789;
                        } else {
                            var10 = -0.7299562;
                        }
                    } else {
                        if (input[4] < 0.556338) {
                            var10 = 5.663542;
                        } else {
                            var10 = 2.4554894;
                        }
                    }
                } else {
                    if (input[3] < 0.3292683) {
                        if (input[0] < 0.9056604) {
                            var10 = 3.2966146;
                        } else {
                            var10 = -0.8412435;
                        }
                    } else {
                        var10 = -4.983278;
                    }
                }
            } else {
                if (input[2] < 1.0) {
                    if (input[4] < 0.6830986) {
                        if (input[3] < 0.09756097) {
                            var10 = -0.7129669;
                        } else {
                            var10 = 1.1545516;
                        }
                    } else {
                        if (input[1] < 0.16666667) {
                            var10 = 2.47032;
                        } else {
                            var10 = 5.6246066;
                        }
                    }
                } else {
                    var10 = -2.948671;
                }
            }
        } else {
            if (input[3] < 0.24390244) {
                var10 = 5.5171223;
            } else {
                if (input[2] < 0.42857143) {
                    if (input[0] < 0.990566) {
                        var10 = 1.875586;
                    } else {
                        var10 = 1.0571864;
                    }
                } else {
                    if (input[0] < 1.0) {
                        var10 = 3.3690703;
                    } else {
                        var10 = 1.7447917;
                    }
                }
            }
        }
    }
    double var11;
    if (input[0] < 0.8396226) {
        if (input[4] < 0.6830986) {
            if (input[1] < 0.16666667) {
                if (input[3] < 0.4512195) {
                    if (input[4] < 0.02112676) {
                        var11 = 0.38789064;
                    } else {
                        var11 = 1.477002;
                    }
                } else {
                    var11 = 0.017907716;
                }
            } else {
                if (input[3] < 0.5365854) {
                    if (input[3] < 0.17073171) {
                        if (input[3] < 0.09756097) {
                            var11 = -0.35661623;
                        } else {
                            var11 = 0.8533814;
                        }
                    } else {
                        if (input[1] < 0.5) {
                            var11 = -2.0223165;
                        } else {
                            var11 = -3.225345;
                        }
                    }
                } else {
                    var11 = -4.9272137;
                }
            }
        } else {
            if (input[0] < 0.094339624) {
                if (input[5] < 0.1625) {
                    if (input[3] < 0.47560975) {
                        var11 = -1.2097756;
                    } else {
                        var11 = -0.82098466;
                    }
                } else {
                    var11 = -1.6068804;
                }
            } else {
                if (input[3] < 0.2682927) {
                    if (input[3] < 0.23170732) {
                        var11 = 0.90506595;
                    } else {
                        var11 = -2.579059;
                    }
                } else {
                    if (input[3] < 0.37804878) {
                        var11 = 2.6658418;
                    } else {
                        var11 = 0.017907716;
                    }
                }
            }
        }
    } else {
        if (input[0] < 0.9622642) {
            if (input[5] < 0.13125) {
                if (input[4] < 0.80985916) {
                    if (input[0] < 0.9150943) {
                        var11 = 4.004739;
                    } else {
                        var11 = 2.282487;
                    }
                } else {
                    if (input[5] < 0.0375) {
                        if (input[2] < 0.8) {
                            var11 = 0.88422465;
                        } else {
                            var11 = 2.5189362;
                        }
                    } else {
                        var11 = -4.4154606;
                    }
                }
            } else {
                if (input[5] < 0.1625) {
                    if (input[1] < 0.33333334) {
                        var11 = -4.8451824;
                    } else {
                        if (input[0] < 0.8584906) {
                            var11 = -2.1746292;
                        } else {
                            var11 = -0.6519531;
                        }
                    }
                } else {
                    if (input[3] < 0.34146342) {
                        if (input[3] < 0.29268292) {
                            var11 = 0.40279135;
                        } else {
                            var11 = 2.7054825;
                        }
                    } else {
                        if (input[4] < 0.6830986) {
                            var11 = 1.1484761;
                        } else {
                            var11 = -3.5576718;
                        }
                    }
                }
            }
        } else {
            if (input[3] < 0.24390244) {
                var11 = 4.0458984;
            } else {
                if (input[2] < 0.42857143) {
                    if (input[0] < 0.990566) {
                        var11 = 1.3754557;
                    } else {
                        var11 = 0.75870293;
                    }
                } else {
                    if (input[0] < 1.0) {
                        var11 = 2.398758;
                    } else {
                        var11 = 1.2794923;
                    }
                }
            }
        }
    }
    double var12;
    if (input[0] < 0.8396226) {
        if (input[4] < 0.6830986) {
            if (input[1] < 0.16666667) {
                if (input[3] < 0.4512195) {
                    var12 = 1.0510437;
                } else {
                    var12 = 0.015216065;
                }
            } else {
                if (input[4] < 0.5140845) {
                    var12 = -3.1100357;
                } else {
                    if (input[4] < 0.6056338) {
                        if (input[0] < 0.7735849) {
                            var12 = -0.92035276;
                        } else {
                            var12 = 0.28151858;
                        }
                    } else {
                        var12 = -2.31466;
                    }
                }
            }
        } else {
            if (input[0] < 0.094339624) {
                if (input[4] < 0.7394366) {
                    if (input[1] < 0.6666667) {
                        var12 = -1.3675437;
                    } else {
                        var12 = -0.85819167;
                    }
                } else {
                    if (input[0] < 0.009433962) {
                        var12 = -1.1830729;
                    } else {
                        if (input[3] < 0.14634146) {
                            var12 = -1.0200522;
                        } else {
                            var12 = -0.64917696;
                        }
                    }
                }
            } else {
                if (input[3] < 0.2682927) {
                    if (input[3] < 0.23170732) {
                        var12 = 0.72406006;
                    } else {
                        var12 = -2.1921937;
                    }
                } else {
                    if (input[3] < 0.37804878) {
                        var12 = 2.066034;
                    } else {
                        var12 = 0.015216065;
                    }
                }
            }
        }
    } else {
        if (input[0] < 0.9622642) {
            if (input[3] < 0.74390244) {
                if (input[3] < 0.5731707) {
                    if (input[2] < 1.0) {
                        if (input[4] < 0.8873239) {
                            var12 = 0.819832;
                        } else {
                            var12 = -0.17363393;
                        }
                    } else {
                        var12 = -1.6037751;
                    }
                } else {
                    if (input[5] < 0.13125) {
                        if (input[0] < 0.9056604) {
                            var12 = 1.1868896;
                        } else {
                            var12 = 3.1046875;
                        }
                    } else {
                        if (input[1] < 0.6666667) {
                            var12 = -2.9834647;
                        } else {
                            var12 = -0.24661459;
                        }
                    }
                }
            } else {
                var12 = 2.1370766;
            }
        } else {
            if (input[3] < 0.24390244) {
                var12 = 2.9669921;
            } else {
                if (input[2] < 0.42857143) {
                    if (input[3] < 0.41463414) {
                        var12 = 0.39388022;
                    } else {
                        var12 = 0.86994493;
                    }
                } else {
                    if (input[1] < 0.6666667) {
                        var12 = 1.8868912;
                    } else {
                        var12 = 1.1215189;
                    }
                }
            }
        }
    }
    double var13;
    if (input[0] < 0.8396226) {
        if (input[4] < 0.6830986) {
            if (input[3] < 0.5365854) {
                if (input[1] < 0.16666667) {
                    if (input[3] < 0.14634146) {
                        var13 = 1.1217041;
                    } else {
                        if (input[3] < 0.4512195) {
                            var13 = 0.33828124;
                        } else {
                            var13 = 0.012927246;
                        }
                    }
                } else {
                    if (input[4] < 0.6056338) {
                        if (input[4] < 0.46478873) {
                            var13 = -1.4319011;
                        } else {
                            var13 = -0.5553878;
                        }
                    } else {
                        var13 = -1.6610984;
                    }
                }
            } else {
                var13 = -2.783952;
            }
        } else {
            if (input[0] < 0.094339624) {
                if (input[5] < 0.1625) {
                    if (input[0] < 0.028301887) {
                        var13 = -0.84472656;
                    } else {
                        if (input[3] < 0.14634146) {
                            var13 = -0.7480469;
                        } else {
                            var13 = -0.45840046;
                        }
                    }
                } else {
                    if (input[1] < 0.5) {
                        var13 = -0.99350876;
                    } else {
                        var13 = -0.6158893;
                    }
                }
            } else {
                if (input[4] < 0.8873239) {
                    var13 = 1.7598268;
                } else {
                    if (input[4] < 0.9366197) {
                        if (input[1] < 0.16666667) {
                            var13 = 0.26469728;
                        } else {
                            var13 = -1.8633729;
                        }
                    } else {
                        if (input[3] < 0.37804878) {
                            var13 = 0.7778809;
                        } else {
                            var13 = 0.012927246;
                        }
                    }
                }
            }
        }
    } else {
        if (input[0] < 0.9622642) {
            if (input[1] < 0.16666667) {
                if (input[3] < 0.37804878) {
                    if (input[4] < 0.02112676) {
                        var13 = -0.23295595;
                    } else {
                        if (input[3] < 0.024390243) {
                            var13 = 0.7558411;
                        } else {
                            var13 = 2.4382858;
                        }
                    }
                } else {
                    if (input[3] < 0.4512195) {
                        var13 = 0.17175293;
                    } else {
                        if (input[2] < 0.8) {
                            var13 = 0.036305238;
                        } else {
                            var13 = -0.7884934;
                        }
                    }
                }
            } else {
                if (input[1] < 0.33333334) {
                    if (input[2] < 0.5714286) {
                        if (input[0] < 0.8584906) {
                            var13 = 0.80025333;
                        } else {
                            var13 = -0.34459534;
                        }
                    } else {
                        if (input[3] < 0.23170732) {
                            var13 = 0.6031861;
                        } else {
                            var13 = -3.1565301;
                        }
                    }
                } else {
                    if (input[5] < 0.13125) {
                        if (input[1] < 0.6666667) {
                            var13 = 2.3051057;
                        } else {
                            var13 = 1.2562203;
                        }
                    } else {
                        if (input[4] < 0.6830986) {
                            var13 = 0.5044253;
                        } else {
                            var13 = -0.9960003;
                        }
                    }
                }
            }
        } else {
            if (input[3] < 0.24390244) {
                var13 = 2.1757812;
            } else {
                if (input[2] < 0.42857143) {
                    if (input[0] < 0.990566) {
                        var13 = 0.77669275;
                    } else {
                        var13 = 0.36605585;
                    }
                } else {
                    if (input[1] < 0.6666667) {
                        var13 = 1.3541017;
                    } else {
                        var13 = 0.8048369;
                    }
                }
            }
        }
    }
    double var14;
    if (input[0] < 0.7735849) {
        if (input[4] < 0.5140845) {
            if (input[0] < 0.3207547) {
                var14 = -1.0500652;
            } else {
                var14 = -2.0415692;
            }
        } else {
            if (input[4] < 0.7394366) {
                if (input[5] < 0.20625) {
                    if (input[3] < 0.47560975) {
                        var14 = -0.87573045;
                    } else {
                        var14 = -0.41744795;
                    }
                } else {
                    var14 = -0.49276173;
                }
            } else {
                if (input[0] < 0.009433962) {
                    var14 = -0.60263675;
                } else {
                    if (input[3] < 0.14634146) {
                        var14 = -0.5485677;
                    } else {
                        var14 = -0.32369462;
                    }
                }
            }
        }
    } else {
        if (input[3] < 0.8292683) {
            if (input[3] < 0.4512195) {
                if (input[4] < 0.556338) {
                    if (input[4] < 0.52112675) {
                        if (input[3] < 0.24390244) {
                            var14 = 1.4761877;
                        } else {
                            var14 = 0.026494285;
                        }
                    } else {
                        var14 = 3.4938803;
                    }
                } else {
                    if (input[1] < 0.16666667) {
                        if (input[2] < 0.8) {
                            var14 = 2.3161051;
                        } else {
                            var14 = 0.93571204;
                        }
                    } else {
                        if (input[5] < 0.2875) {
                            var14 = -0.34634143;
                        } else {
                            var14 = 0.6451949;
                        }
                    }
                }
            } else {
                if (input[5] < 0.13125) {
                    if (input[0] < 0.9056604) {
                        if (input[0] < 0.8490566) {
                            var14 = 0.026253257;
                        } else {
                            var14 = 0.5455719;
                        }
                    } else {
                        var14 = 1.4729608;
                    }
                } else {
                    if (input[0] < 0.9150943) {
                        if (input[0] < 0.8490566) {
                            var14 = -0.51446944;
                        } else {
                            var14 = -2.0801454;
                        }
                    } else {
                        if (input[0] < 0.9622642) {
                            var14 = -0.3148414;
                        } else {
                            var14 = 0.54508597;
                        }
                    }
                }
            }
        } else {
            var14 = 1.3235933;
        }
    }
    double var15;
    if (input[0] < 0.8396226) {
        if (input[4] < 0.6830986) {
            if (input[1] < 0.16666667) {
                if (input[3] < 0.14634146) {
                    var15 = 0.73205566;
                } else {
                    var15 = 0.24306336;
                }
            } else {
                if (input[3] < 0.5365854) {
                    if (input[4] < 0.6056338) {
                        if (input[3] < 0.47560975) {
                            var15 = -0.16336338;
                        } else {
                            var15 = -0.6299001;
                        }
                    } else {
                        var15 = -1.0195485;
                    }
                } else {
                    var15 = -1.4971354;
                }
            }
        } else {
            if (input[5] < 0.2125) {
                if (input[4] < 0.943662) {
                    if (input[5] < 0.05625) {
                        if (input[1] < 0.16666667) {
                            var15 = 0.007049561;
                        } else {
                            var15 = -1.5319153;
                        }
                    } else {
                        if (input[0] < 0.094339624) {
                            var15 = -0.33190942;
                        } else {
                            var15 = 0.3239258;
                        }
                    }
                } else {
                    var15 = 0.5633667;
                }
            } else {
                var15 = 1.2663392;
            }
        }
    } else {
        if (input[0] < 0.9622642) {
            if (input[4] < 0.69014084) {
                if (input[4] < 0.6830986) {
                    if (input[5] < 0.2125) {
                        if (input[0] < 0.9056604) {
                            var15 = -1.0663307;
                        } else {
                            var15 = 0.1625444;
                        }
                    } else {
                        if (input[2] < 0.7714286) {
                            var15 = 1.1872202;
                        } else {
                            var15 = -0.08125638;
                        }
                    }
                } else {
                    if (input[0] < 0.9433962) {
                        var15 = -2.162728;
                    } else {
                        var15 = -1.0334636;
                    }
                }
            } else {
                if (input[4] < 0.73239434) {
                    if (input[0] < 0.8490566) {
                        var15 = 2.5579011;
                    } else {
                        var15 = 1.2692709;
                    }
                } else {
                    if (input[1] < 0.16666667) {
                        if (input[4] < 0.8873239) {
                            var15 = 1.8104554;
                        } else {
                            var15 = 0.49063778;
                        }
                    } else {
                        if (input[3] < 0.23170732) {
                            var15 = 1.1042432;
                        } else {
                            var15 = -0.66722333;
                        }
                    }
                }
            }
        } else {
            if (input[3] < 0.3902439) {
                var15 = 1.03804;
            } else {
                if (input[4] < 0.58450705) {
                    if (input[0] < 1.0) {
                        var15 = 0.15963542;
                    } else {
                        var15 = 0.2791667;
                    }
                } else {
                    if (input[3] < 0.41463414) {
                        var15 = 0.28356123;
                    } else {
                        var15 = 0.7197422;
                    }
                }
            }
        }
    }
    double var16;
    if (input[0] < 0.8396226) {
        if (input[4] < 0.6830986) {
            if (input[3] < 0.3292683) {
                if (input[3] < 0.09756097) {
                    var16 = -0.334314;
                } else {
                    if (input[3] < 0.17073171) {
                        var16 = 0.8776368;
                    } else {
                        var16 = 0.08087769;
                    }
                }
            } else {
                if (input[3] < 0.5365854) {
                    if (input[1] < 0.5) {
                        if (input[4] < 0.46478873) {
                            var16 = -0.6020833;
                        } else {
                            var16 = -0.19479725;
                        }
                    } else {
                        var16 = -0.73168087;
                    }
                } else {
                    var16 = -1.0978842;
                }
            }
        } else {
            if (input[5] < 0.2125) {
                if (input[4] < 0.943662) {
                    if (input[5] < 0.05625) {
                        if (input[1] < 0.16666667) {
                            var16 = 0.005987549;
                        } else {
                            var16 = -1.3021363;
                        }
                    } else {
                        if (input[0] < 0.094339624) {
                            var16 = -0.23336321;
                        } else {
                            var16 = 0.25913087;
                        }
                    }
                } else {
                    var16 = 0.45068362;
                }
            } else {
                var16 = 1.0763855;
            }
        }
    } else {
        if (input[3] < 0.29268292) {
            if (input[3] < 0.24390244) {
                if (input[2] < 0.5714286) {
                    var16 = 1.142798;
                } else {
                    if (input[1] < 0.33333334) {
                        if (input[4] < 0.3028169) {
                            var16 = 0.7373841;
                        } else {
                            var16 = 0.22873048;
                        }
                    } else {
                        if (input[3] < 0.09756097) {
                            var16 = -1.1272248;
                        } else {
                            var16 = -0.38334504;
                        }
                    }
                }
            } else {
                if (input[0] < 0.8490566) {
                    var16 = -2.116214;
                } else {
                    var16 = -0.5563431;
                }
            }
        } else {
            if (input[3] < 0.34146342) {
                if (input[4] < 0.02112676) {
                    var16 = -0.15742952;
                } else {
                    if (input[0] < 0.8490566) {
                        var16 = 1.718213;
                    } else {
                        var16 = 0.908622;
                    }
                }
            } else {
                if (input[5] < 0.275) {
                    if (input[5] < 0.21875) {
                        if (input[5] < 0.1375) {
                            var16 = 0.5852261;
                        } else {
                            var16 = -0.19701046;
                        }
                    } else {
                        if (input[1] < 0.5) {
                            var16 = 0.55102545;
                        } else {
                            var16 = 2.245573;
                        }
                    }
                } else {
                    if (input[0] < 0.9433962) {
                        if (input[0] < 0.9150943) {
                            var16 = -0.76181644;
                        } else {
                            var16 = -1.5860027;
                        }
                    } else {
                        var16 = 0.15306756;
                    }
                }
            }
        }
    }
    double var17;
    if (input[0] < 0.8396226) {
        if (input[3] < 0.37804878) {
            if (input[5] < 0.1625) {
                if (input[4] < 0.9366197) {
                    if (input[0] < 0.06603774) {
                        if (input[3] < 0.14634146) {
                            var17 = -0.25152996;
                        } else {
                            var17 = -0.072375;
                        }
                    } else {
                        var17 = -1.1068177;
                    }
                } else {
                    var17 = 0.3605469;
                }
            } else {
                if (input[3] < 0.09756097) {
                    if (input[1] < 0.16666667) {
                        var17 = -0.0028198243;
                    } else {
                        var17 = -0.2841797;
                    }
                } else {
                    if (input[4] < 0.02112676) {
                        var17 = 0.0687378;
                    } else {
                        var17 = 0.9127515;
                    }
                }
            }
        } else {
            if (input[0] < 0.14150943) {
                if (input[4] < 0.7605634) {
                    if (input[1] < 0.33333334) {
                        var17 = -0.09082031;
                    } else {
                        if (input[5] < 0.20625) {
                            var17 = -0.30952507;
                        } else {
                            var17 = -0.1633387;
                        }
                    }
                } else {
                    if (input[0] < 0.06603774) {
                        var17 = -0.0010742188;
                    } else {
                        var17 = -0.046940107;
                    }
                }
            } else {
                if (input[1] < 0.16666667) {
                    if (input[2] < 0.8) {
                        var17 = 0.005090332;
                    } else {
                        var17 = 0.23620607;
                    }
                } else {
                    if (input[3] < 0.5365854) {
                        if (input[3] < 0.5) {
                            var17 = -0.5637581;
                        } else {
                            var17 = -0.19983724;
                        }
                    } else {
                        var17 = -0.8051107;
                    }
                }
            }
        }
    } else {
        if (input[3] < 0.8292683) {
            if (input[3] < 0.4512195) {
                if (input[3] < 0.29268292) {
                    if (input[3] < 0.24390244) {
                        if (input[2] < 0.5714286) {
                            var17 = 0.8213791;
                        } else {
                            var17 = -0.09632847;
                        }
                    } else {
                        if (input[0] < 0.8490566) {
                            var17 = -1.5607086;
                        } else {
                            var17 = -0.3998566;
                        }
                    }
                } else {
                    if (input[0] < 0.9150943) {
                        if (input[4] < 0.5070422) {
                            var17 = -0.06386475;
                        } else {
                            var17 = 0.9818179;
                        }
                    } else {
                        if (input[0] < 0.9433962) {
                            var17 = -1.1630534;
                        } else {
                            var17 = 0.32414064;
                        }
                    }
                }
            } else {
                if (input[3] < 0.47560975) {
                    if (input[0] < 0.8490566) {
                        var17 = -0.114843756;
                    } else {
                        if (input[0] < 0.8773585) {
                            var17 = -1.52623;
                        } else {
                            var17 = -0.7380859;
                        }
                    }
                } else {
                    if (input[1] < 0.33333334) {
                        if (input[0] < 0.8490566) {
                            var17 = -0.26250002;
                        } else {
                            var17 = -1.0241863;
                        }
                    } else {
                        if (input[5] < 0.16875) {
                            var17 = 0.62848663;
                        } else {
                            var17 = -0.17970942;
                        }
                    }
                }
            }
        } else {
            if (input[0] < 0.8773585) {
                var17 = 0.41884005;
            } else {
                var17 = 0.6927849;
            }
        }
    }
    double var18;
    if (input[0] < 0.8396226) {
        if (input[4] < 0.6830986) {
            if (input[1] < 0.16666667) {
                if (input[3] < 0.4512195) {
                    if (input[4] < 0.02112676) {
                        var18 = 0.058428958;
                    } else {
                        var18 = 0.3944092;
                    }
                } else {
                    var18 = 0.04550171;
                }
            } else {
                if (input[3] < 0.5365854) {
                    if (input[4] < 0.6056338) {
                        if (input[0] < 0.7735849) {
                            var18 = -0.20428127;
                        } else {
                            var18 = 0.12270509;
                        }
                    } else {
                        if (input[0] < 0.094339624) {
                            var18 = -0.28593752;
                        } else {
                            var18 = -0.47301432;
                        }
                    }
                } else {
                    var18 = -0.5904297;
                }
            }
        } else {
            if (input[5] < 0.2125) {
                if (input[4] < 0.943662) {
                    if (input[5] < 0.05625) {
                        if (input[1] < 0.16666667) {
                            var18 = 0.0043212892;
                        } else {
                            var18 = -0.94079596;
                        }
                    } else {
                        if (input[5] < 0.18125) {
                            var18 = -0.07296999;
                        } else {
                            var18 = -0.17739701;
                        }
                    }
                } else {
                    var18 = 0.28842774;
                }
            } else {
                var18 = 0.7780152;
            }
        }
    } else {
        if (input[5] < 1.0) {
            if (input[5] < 0.24375) {
                if (input[5] < 0.175) {
                    if (input[1] < 0.33333334) {
                        if (input[1] < 0.16666667) {
                            var18 = 0.33096814;
                        } else {
                            var18 = -0.49978518;
                        }
                    } else {
                        if (input[0] < 0.8584906) {
                            var18 = -0.40426028;
                        } else {
                            var18 = 0.320499;
                        }
                    }
                } else {
                    if (input[4] < 0.49295774) {
                        var18 = -1.1255906;
                    } else {
                        if (input[0] < 0.8773585) {
                            var18 = 0.13543314;
                        } else {
                            var18 = -0.46571487;
                        }
                    }
                }
            } else {
                if (input[5] < 0.25) {
                    var18 = 1.3848959;
                } else {
                    if (input[3] < 0.34146342) {
                        if (input[2] < 0.82857144) {
                            var18 = 0.261684;
                        } else {
                            var18 = 1.1776932;
                        }
                    } else {
                        if (input[0] < 0.9433962) {
                            var18 = -0.5069855;
                        } else {
                            var18 = 0.3318182;
                        }
                    }
                }
            }
        } else {
            if (input[3] < 0.09756097) {
                var18 = -0.80602115;
            } else {
                var18 = 0.022814943;
            }
        }
    }
    double var19;
    if (input[3] < 0.8292683) {
        if (input[3] < 0.4512195) {
            if (input[4] < 0.556338) {
                if (input[4] < 0.52112675) {
                    if (input[4] < 0.02112676) {
                        if (input[0] < 0.8018868) {
                            var19 = 0.049658205;
                        } else {
                            var19 = -0.1680359;
                        }
                    } else {
                        if (input[3] < 0.24390244) {
                            var19 = 0.44569597;
                        } else {
                            var19 = 0.16971843;
                        }
                    }
                } else {
                    var19 = 1.0155599;
                }
            } else {
                if (input[3] < 0.29268292) {
                    if (input[3] < 0.23170732) {
                        if (input[5] < 0.10625) {
                            var19 = 0.52994156;
                        } else {
                            var19 = -0.17143905;
                        }
                    } else {
                        if (input[0] < 0.8490566) {
                            var19 = -1.0842367;
                        } else {
                            var19 = -0.2735779;
                        }
                    }
                } else {
                    if (input[3] < 0.34146342) {
                        if (input[2] < 0.8) {
                            var19 = 0.30307046;
                        } else {
                            var19 = 0.9189901;
                        }
                    } else {
                        if (input[5] < 0.2125) {
                            var19 = 0.03698222;
                        } else {
                            var19 = -0.5636029;
                        }
                    }
                }
            }
        } else {
            if (input[5] < 0.13125) {
                if (input[0] < 0.8490566) {
                    if (input[0] < 0.8018868) {
                        var19 = 0.00368042;
                    } else {
                        var19 = -0.2804764;
                    }
                } else {
                    if (input[1] < 0.5) {
                        var19 = 0.5216797;
                    } else {
                        var19 = 0.24203339;
                    }
                }
            } else {
                if (input[4] < 0.49295774) {
                    if (input[0] < 0.3207547) {
                        var19 = -0.2367513;
                    } else {
                        var19 = -0.8301178;
                    }
                } else {
                    if (input[5] < 0.15625) {
                        if (input[2] < 0.71428573) {
                            var19 = -0.65888673;
                        } else {
                            var19 = 0.012132354;
                        }
                    } else {
                        if (input[3] < 0.70731705) {
                            var19 = -0.042044647;
                        } else {
                            var19 = -0.53323567;
                        }
                    }
                }
            }
        }
    } else {
        if (input[1] < 0.5) {
            var19 = 0.47662762;
        } else {
            var19 = 0.29894945;
        }
    }
    double var20;
    if (input[0] < 0.7735849) {
        if (input[4] < 0.5140845) {
            if (input[0] < 0.3207547) {
                var20 = -0.17363283;
            } else {
                var20 = -0.42177734;
            }
        } else {
            if (input[3] < 0.47560975) {
                if (input[1] < 0.33333334) {
                    if (input[1] < 0.16666667) {
                        var20 = -0.0063476562;
                    } else {
                        if (input[0] < 0.03773585) {
                            var20 = -0.0359375;
                        } else {
                            var20 = -0.05963542;
                        }
                    }
                } else {
                    if (input[5] < 0.20625) {
                        if (input[5] < 0.1625) {
                            var20 = -0.10979298;
                        } else {
                            var20 = -0.2194336;
                        }
                    } else {
                        var20 = -0.06264362;
                    }
                }
            } else {
                if (input[0] < 0.094339624) {
                    if (input[0] < 0.06603774) {
                        var20 = 0.01546224;
                    } else {
                        if (input[1] < 0.6666667) {
                            var20 = -0.0037434897;
                        } else {
                            var20 = -0.014322917;
                        }
                    }
                } else {
                    var20 = -0.08089193;
                }
            }
        }
    } else {
        if (input[4] < 0.556338) {
            if (input[4] < 0.52112675) {
                if (input[3] < 0.24390244) {
                    if (input[0] < 0.8490566) {
                        var20 = 0.39141443;
                    } else {
                        var20 = 0.21269532;
                    }
                } else {
                    if (input[0] < 0.9433962) {
                        if (input[4] < 0.49295774) {
                            var20 = -0.36279145;
                        } else {
                            var20 = 0.045285217;
                        }
                    } else {
                        if (input[0] < 0.9622642) {
                            var20 = 0.21038412;
                        } else {
                            var20 = 0.046875;
                        }
                    }
                }
            } else {
                var20 = 0.7196002;
            }
        } else {
            if (input[4] < 0.5915493) {
                if (input[2] < 0.71428573) {
                    var20 = -0.47283435;
                } else {
                    if (input[3] < 0.09756097) {
                        var20 = -0.5404867;
                    } else {
                        if (input[0] < 0.8018868) {
                            var20 = 0.3185791;
                        } else {
                            var20 = -0.016090991;
                        }
                    }
                }
            } else {
                if (input[3] < 0.29268292) {
                    if (input[3] < 0.23170732) {
                        if (input[0] < 0.9056604) {
                            var20 = 0.3093445;
                        } else {
                            var20 = -0.29199222;
                        }
                    } else {
                        if (input[0] < 0.8490566) {
                            var20 = -0.7951091;
                        } else {
                            var20 = -0.19663925;
                        }
                    }
                } else {
                    if (input[3] < 0.3292683) {
                        if (input[0] < 0.8490566) {
                            var20 = 0.58998954;
                        } else {
                            var20 = 0.19947918;
                        }
                    } else {
                        if (input[5] < 0.275) {
                            var20 = 0.12575059;
                        } else {
                            var20 = -0.29875782;
                        }
                    }
                }
            }
        }
    }
    double var21;
    if (input[3] < 0.8292683) {
        if (input[4] < 0.943662) {
            if (input[5] < 0.05625) {
                if (input[3] < 0.2682927) {
                    var21 = -0.5830648;
                } else {
                    if (input[0] < 0.8490566) {
                        if (input[0] < 0.8018868) {
                            var21 = -0.01572876;
                        } else {
                            var21 = -0.23984529;
                        }
                    } else {
                        var21 = 0.07821808;
                    }
                }
            } else {
                if (input[5] < 0.13125) {
                    if (input[0] < 0.9150943) {
                        var21 = 0.40870973;
                    } else {
                        var21 = 0.14024587;
                    }
                } else {
                    if (input[5] < 0.29375) {
                        if (input[5] < 0.26875) {
                            var21 = -0.0363437;
                        } else {
                            var21 = -0.31120384;
                        }
                    } else {
                        if (input[3] < 0.09756097) {
                            var21 = -0.39634603;
                        } else {
                            var21 = 0.120490395;
                        }
                    }
                }
            }
        } else {
            if (input[1] < 0.16666667) {
                if (input[0] < 0.8018868) {
                    var21 = 0.03175049;
                } else {
                    var21 = 0.3477997;
                }
            } else {
                var21 = 0.14493002;
            }
        }
    } else {
        if (input[1] < 0.5) {
            var21 = 0.31601563;
        } else {
            var21 = 0.17952576;
        }
    }
    double var22;
    if (input[0] < 0.6886792) {
        if (input[4] < 0.6830986) {
            if (input[0] < 0.14150943) {
                var22 = -0.11103516;
            } else {
                var22 = -0.20425092;
            }
        } else {
            if (input[3] < 0.47560975) {
                if (input[1] < 0.33333334) {
                    if (input[1] < 0.16666667) {
                        var22 = 0.0050455728;
                    } else {
                        if (input[0] < 0.03773585) {
                            var22 = -0.016666668;
                        } else {
                            var22 = -0.03401693;
                        }
                    }
                } else {
                    if (input[1] < 0.5) {
                        if (input[0] < 0.056603774) {
                            var22 = -0.097024366;
                        } else {
                            var22 = -0.17161459;
                        }
                    } else {
                        if (input[0] < 0.028301887) {
                            var22 = -0.08300782;
                        } else {
                            var22 = -0.027883733;
                        }
                    }
                }
            } else {
                if (input[0] < 0.06603774) {
                    var22 = 0.021028647;
                } else {
                    if (input[1] < 0.6666667) {
                        var22 = 0.006966146;
                    } else {
                        var22 = -0.00081380206;
                    }
                }
            }
        }
    } else {
        if (input[5] < 0.24375) {
            if (input[5] < 0.175) {
                if (input[5] < 0.1625) {
                    if (input[2] < 0.5714286) {
                        if (input[4] < 0.80985916) {
                            var22 = 0.2685364;
                        } else {
                            var22 = -0.057623293;
                        }
                    } else {
                        if (input[4] < 0.943662) {
                            var22 = -0.14455147;
                        } else {
                            var22 = 0.18014131;
                        }
                    }
                } else {
                    if (input[2] < 0.14285715) {
                        var22 = 0.008683777;
                    } else {
                        if (input[0] < 0.9433962) {
                            var22 = 0.3839054;
                        } else {
                            var22 = 0.12740886;
                        }
                    }
                }
            } else {
                if (input[4] < 0.49295774) {
                    var22 = -0.5074402;
                } else {
                    if (input[0] < 0.9433962) {
                        if (input[5] < 0.21875) {
                            var22 = 0.014461899;
                        } else {
                            var22 = -0.22491384;
                        }
                    } else {
                        var22 = -0.4148763;
                    }
                }
            }
        } else {
            if (input[5] < 0.275) {
                if (input[1] < 0.5) {
                    if (input[0] < 0.8490566) {
                        var22 = 0.12212729;
                    } else {
                        var22 = 0.2423523;
                    }
                } else {
                    var22 = 0.5625651;
                }
            } else {
                if (input[5] < 0.2875) {
                    if (input[0] < 0.9150943) {
                        var22 = -0.20172526;
                    } else {
                        var22 = -0.40478516;
                    }
                } else {
                    if (input[3] < 0.09756097) {
                        var22 = -0.290682;
                    } else {
                        if (input[1] < 0.6666667) {
                            var22 = 0.048846565;
                        } else {
                            var22 = 0.22761564;
                        }
                    }
                }
            }
        }
    }
    double var23;
    if (input[0] < 0.9622642) {
        if (input[1] < 0.16666667) {
            if (input[3] < 0.4512195) {
                if (input[4] < 0.02112676) {
                    if (input[0] < 0.8018868) {
                        var23 = 0.07122803;
                    } else {
                        var23 = -0.07312317;
                    }
                } else {
                    if (input[0] < 0.03773585) {
                        var23 = 0.0037109377;
                    } else {
                        if (input[3] < 0.024390243) {
                            var23 = 0.071126305;
                        } else {
                            var23 = 0.1930531;
                        }
                    }
                }
            } else {
                if (input[0] < 0.8018868) {
                    if (input[2] < 0.8) {
                        var23 = 0.008312989;
                    } else {
                        var23 = 0.00047607423;
                    }
                } else {
                    var23 = -0.12701172;
                }
            }
        } else {
            if (input[3] < 0.74390244) {
                if (input[3] < 0.73170733) {
                    if (input[4] < 0.8802817) {
                        if (input[5] < 0.13125) {
                            var23 = 0.17655148;
                        } else {
                            var23 = -0.042291373;
                        }
                    } else {
                        if (input[3] < 0.23170732) {
                            var23 = 0.05824382;
                        } else {
                            var23 = -0.280677;
                        }
                    }
                } else {
                    var23 = -0.3042318;
                }
            } else {
                var23 = 0.1494896;
            }
        }
    } else {
        if (input[0] < 0.990566) {
            if (input[1] < 0.8333333) {
                var23 = 0.10863971;
            } else {
                var23 = 0.24537762;
            }
        } else {
            if (input[5] < 0.1375) {
                var23 = -0.13834636;
            } else {
                if (input[1] < 0.5) {
                    var23 = 0.182487;
                } else {
                    if (input[1] < 0.6666667) {
                        var23 = -0.010807293;
                    } else {
                        var23 = 0.06176471;
                    }
                }
            }
        }
    }
    double var24;
    if (input[5] < 0.24375) {
        if (input[5] < 0.175) {
            if (input[5] < 0.1625) {
                if (input[4] < 0.5915493) {
                    if (input[0] < 0.9528302) {
                        var24 = -0.2763385;
                    } else {
                        if (input[0] < 0.9622642) {
                            var24 = -0.0017903646;
                        } else {
                            var24 = 0.03704427;
                        }
                    }
                } else {
                    if (input[4] < 0.7253521) {
                        if (input[3] < 0.3902439) {
                            var24 = 0.0828125;
                        } else {
                            var24 = 0.2178309;
                        }
                    } else {
                        if (input[4] < 0.943662) {
                            var24 = -0.039027434;
                        } else {
                            var24 = 0.093784474;
                        }
                    }
                }
            } else {
                if (input[4] < 0.5422535) {
                    var24 = 0.34121093;
                } else {
                    if (input[0] < 0.8490566) {
                        if (input[0] < 0.8018868) {
                            var24 = -0.027209474;
                        } else {
                            var24 = 0.16316529;
                        }
                    } else {
                        if (input[0] < 0.8773585) {
                            var24 = 0.017495729;
                        } else {
                            var24 = 0.064453125;
                        }
                    }
                }
            }
        } else {
            if (input[4] < 0.49295774) {
                var24 = -0.3631485;
            } else {
                if (input[0] < 0.9433962) {
                    if (input[5] < 0.21875) {
                        if (input[2] < 0.42857143) {
                            var24 = 0.07171326;
                        } else {
                            var24 = -0.042715974;
                        }
                    } else {
                        var24 = -0.14950024;
                    }
                } else {
                    var24 = -0.22311199;
                }
            }
        }
    } else {
        if (input[5] < 0.25) {
            var24 = 0.42382812;
        } else {
            if (input[3] < 0.09756097) {
                if (input[0] < 0.8018868) {
                    var24 = -0.04379883;
                } else {
                    var24 = -0.21616517;
                }
            } else {
                if (input[3] < 0.34146342) {
                    if (input[5] < 0.3125) {
                        if (input[0] < 0.8490566) {
                            var24 = 0.43503827;
                        } else {
                            var24 = 0.13576813;
                        }
                    } else {
                        if (input[3] < 0.14634146) {
                            var24 = 0.19037272;
                        } else {
                            var24 = 0.016105244;
                        }
                    }
                } else {
                    if (input[0] < 0.9433962) {
                        if (input[0] < 0.9150943) {
                            var24 = -0.067886546;
                        } else {
                            var24 = -0.28557944;
                        }
                    } else {
                        if (input[2] < 0.42857143) {
                            var24 = -0.007942708;
                        } else {
                            var24 = 0.14716408;
                        }
                    }
                }
            }
        }
    }
    double var25;
    if (input[5] < 0.24375) {
        if (input[5] < 0.175) {
            if (input[5] < 0.1625) {
                if (input[4] < 0.5915493) {
                    if (input[0] < 0.9528302) {
                        var25 = -0.19830538;
                    } else {
                        if (input[0] < 0.9622642) {
                            var25 = -0.0013020835;
                        } else {
                            var25 = 0.027148439;
                        }
                    }
                } else {
                    if (input[0] < 0.8584906) {
                        if (input[3] < 0.2682927) {
                            var25 = -0.089952394;
                        } else {
                            var25 = 0.008694411;
                        }
                    } else {
                        if (input[4] < 0.80985916) {
                            var25 = 0.1528679;
                        } else {
                            var25 = -0.0328537;
                        }
                    }
                }
            } else {
                if (input[4] < 0.5422535) {
                    var25 = 0.25022787;
                } else {
                    if (input[0] < 0.8490566) {
                        if (input[0] < 0.8018868) {
                            var25 = -0.023144532;
                        } else {
                            var25 = 0.120355226;
                        }
                    } else {
                        if (input[0] < 0.8773585) {
                            var25 = 0.012913514;
                        } else {
                            var25 = 0.047265626;
                        }
                    }
                }
            }
        } else {
            if (input[4] < 0.49295774) {
                var25 = -0.26781923;
            } else {
                if (input[0] < 0.9433962) {
                    if (input[3] < 0.024390243) {
                        if (input[0] < 0.8018868) {
                            var25 = -0.013073731;
                        } else {
                            var25 = 0.074789435;
                        }
                    } else {
                        if (input[3] < 0.47560975) {
                            var25 = -0.07629138;
                        } else {
                            var25 = 0.017475892;
                        }
                    }
                } else {
                    var25 = -0.16360678;
                }
            }
        }
    } else {
        if (input[5] < 0.25) {
            var25 = 0.31080732;
        } else {
            if (input[0] < 0.6886792) {
                if (input[0] < 0.14150943) {
                    var25 = -0.02047526;
                } else {
                    if (input[0] < 0.3207547) {
                        var25 = -0.07565105;
                    } else {
                        var25 = -0.14251304;
                    }
                }
            } else {
                if (input[3] < 0.09756097) {
                    if (input[0] < 0.8018868) {
                        var25 = -0.037243653;
                    } else {
                        var25 = -0.15944825;
                    }
                } else {
                    if (input[2] < 0.82857144) {
                        if (input[5] < 0.275) {
                            var25 = 0.09219475;
                        } else {
                            var25 = -0.027796539;
                        }
                    } else {
                        if (input[4] < 0.6830986) {
                            var25 = 0.07446387;
                        } else {
                            var25 = 0.31902263;
                        }
                    }
                }
            }
        }
    }
    double var26;
    if (input[3] < 0.19512194) {
        if (input[1] < 0.6666667) {
            if (input[0] < 0.056603774) {
                if (input[0] < 0.03773585) {
                    var26 = 0.03714193;
                } else {
                    var26 = -0.008756511;
                }
            } else {
                if (input[3] < 0.024390243) {
                    if (input[0] < 0.8018868) {
                        var26 = -0.011096192;
                    } else {
                        var26 = 0.055178836;
                    }
                } else {
                    var26 = 0.16809082;
                }
            }
        } else {
            if (input[0] < 0.8018868) {
                if (input[3] < 0.09756097) {
                    var26 = -0.031640626;
                } else {
                    var26 = 0.32563478;
                }
            } else {
                if (input[3] < 0.09756097) {
                    var26 = -0.117599495;
                } else {
                    var26 = -0.03800354;
                }
            }
        }
    } else {
        if (input[3] < 0.29268292) {
            if (input[3] < 0.24390244) {
                if (input[1] < 0.8333333) {
                    if (input[0] < 0.8018868) {
                        var26 = 0.10603638;
                    } else {
                        if (input[0] < 0.8490566) {
                            var26 = 0.020411683;
                        } else {
                            var26 = 0.04980469;
                        }
                    }
                } else {
                    var26 = -0.07304688;
                }
            } else {
                if (input[0] < 0.8490566) {
                    var26 = -0.27980956;
                } else {
                    var26 = -0.07665024;
                }
            }
        } else {
            if (input[3] < 0.31707317) {
                var26 = 0.23396404;
            } else {
                if (input[4] < 0.5140845) {
                    if (input[0] < 0.8773585) {
                        if (input[1] < 0.16666667) {
                            var26 = 0.000109863286;
                        } else {
                            var26 = -0.1258362;
                        }
                    } else {
                        if (input[0] < 0.9433962) {
                            var26 = -0.027148439;
                        } else {
                            var26 = 0.00036190258;
                        }
                    }
                } else {
                    if (input[4] < 0.556338) {
                        if (input[0] < 0.7735849) {
                            var26 = 0.020149741;
                        } else {
                            var26 = 0.21781366;
                        }
                    } else {
                        if (input[4] < 0.5915493) {
                            var26 = -0.07516202;
                        } else {
                            var26 = 0.0029236083;
                        }
                    }
                }
            }
        }
    }
    double var27;
    if (input[4] < 1.0) {
        if (input[4] < 0.8873239) {
            if (input[5] < 0.13125) {
                if (input[1] < 0.6666667) {
                    var27 = 0.13752824;
                } else {
                    if (input[2] < 0.14285715) {
                        var27 = -0.0010416667;
                    } else {
                        if (input[0] < 0.9056604) {
                            var27 = 0.04457245;
                        } else {
                            var27 = 0.01920573;
                        }
                    }
                }
            } else {
                if (input[5] < 0.29375) {
                    if (input[5] < 0.275) {
                        if (input[5] < 0.24375) {
                            var27 = -0.019044667;
                        } else {
                            var27 = 0.09001832;
                        }
                    } else {
                        if (input[0] < 0.7735849) {
                            var27 = -0.029744945;
                        } else {
                            var27 = -0.16661306;
                        }
                    }
                } else {
                    if (input[4] < 0.6056338) {
                        if (input[3] < 0.09756097) {
                            var27 = -0.08304851;
                        } else {
                            var27 = 0.017017245;
                        }
                    } else {
                        if (input[0] < 0.8490566) {
                            var27 = 0.17156169;
                        } else {
                            var27 = 0.08196232;
                        }
                    }
                }
            }
        } else {
            if (input[3] < 0.23170732) {
                if (input[0] < 0.8018868) {
                    if (input[1] < 0.16666667) {
                        var27 = -0.009448242;
                    } else {
                        var27 = 0.09012452;
                    }
                } else {
                    if (input[1] < 0.16666667) {
                        var27 = 0.04069519;
                    } else {
                        var27 = 0.015060426;
                    }
                }
            } else {
                if (input[3] < 0.2682927) {
                    var27 = -0.20520021;
                } else {
                    if (input[0] < 0.8018868) {
                        var27 = 0.011187744;
                    } else {
                        if (input[0] < 0.8490566) {
                            var27 = -0.09840546;
                        } else {
                            var27 = -0.042708334;
                        }
                    }
                }
            }
        }
    } else {
        if (input[0] < 0.8018868) {
            var27 = -0.04482422;
        } else {
            var27 = 0.1308014;
        }
    }
    double var28;
    if (input[3] < 0.74390244) {
        if (input[3] < 0.73170733) {
            if (input[3] < 0.19512194) {
                if (input[3] < 0.09756097) {
                    if (input[1] < 0.16666667) {
                        if (input[0] < 0.8018868) {
                            var28 = -0.00802002;
                        } else {
                            var28 = 0.029992677;
                        }
                    } else {
                        if (input[0] < 0.8018868) {
                            var28 = -0.0144287115;
                        } else {
                            var28 = -0.064920045;
                        }
                    }
                } else {
                    if (input[0] < 0.056603774) {
                        if (input[0] < 0.03773585) {
                            var28 = 0.03232422;
                        } else {
                            var28 = -0.0013346354;
                        }
                    } else {
                        if (input[0] < 0.8018868) {
                            var28 = 0.22441407;
                        } else {
                            var28 = 0.055371094;
                        }
                    }
                }
            } else {
                if (input[4] < 0.49295774) {
                    if (input[4] < 0.471831) {
                        if (input[0] < 0.8490566) {
                            var28 = -0.033008534;
                        } else {
                            var28 = -0.00074869796;
                        }
                    } else {
                        var28 = -0.15948029;
                    }
                } else {
                    if (input[4] < 0.556338) {
                        if (input[4] < 0.52112675) {
                            var28 = -0.009076673;
                        } else {
                            var28 = 0.10766017;
                        }
                    } else {
                        if (input[4] < 0.5915493) {
                            var28 = -0.07924512;
                        } else {
                            var28 = -0.0023814603;
                        }
                    }
                }
            }
        } else {
            var28 = -0.115690105;
        }
    } else {
        var28 = 0.04761658;
    }
    double var29;
    if (input[1] < 0.16666667) {
        if (input[3] < 0.46341464) {
            if (input[4] < 0.02112676) {
                if (input[0] < 0.8018868) {
                    var29 = 0.06467286;
                } else {
                    var29 = -0.04668732;
                }
            } else {
                if (input[3] < 0.37804878) {
                    if (input[0] < 0.8018868) {
                        if (input[4] < 0.7605634) {
                            var29 = 0.02707764;
                        } else {
                            var29 = -0.030706787;
                        }
                    } else {
                        if (input[3] < 0.024390243) {
                            var29 = 0.022109985;
                        } else {
                            var29 = 0.09832098;
                        }
                    }
                } else {
                    if (input[0] < 0.8018868) {
                        var29 = 0.08876953;
                    } else {
                        if (input[3] < 0.4512195) {
                            var29 = -0.01102295;
                        } else {
                            var29 = 0.010894775;
                        }
                    }
                }
            }
        } else {
            if (input[0] < 0.8018868) {
                var29 = 0.0098693855;
            } else {
                var29 = -0.07193756;
            }
        }
    } else {
        if (input[3] < 0.5) {
            if (input[5] < 0.24375) {
                if (input[2] < 0.5714286) {
                    if (input[0] < 0.990566) {
                        if (input[0] < 0.8773585) {
                            var29 = 0.014387513;
                        } else {
                            var29 = 0.08641663;
                        }
                    } else {
                        var29 = -0.077343754;
                    }
                } else {
                    if (input[4] < 0.6830986) {
                        if (input[1] < 0.5) {
                            var29 = -0.110909276;
                        } else {
                            var29 = -0.06644531;
                        }
                    } else {
                        if (input[1] < 0.6666667) {
                            var29 = -0.033591617;
                        } else {
                            var29 = 0.022334559;
                        }
                    }
                }
            } else {
                if (input[0] < 0.9150943) {
                    if (input[5] < 0.4125) {
                        if (input[0] < 0.14150943) {
                            var29 = -0.01966146;
                        } else {
                            var29 = 0.09445267;
                        }
                    } else {
                        if (input[0] < 0.8018868) {
                            var29 = 0.027072975;
                        } else {
                            var29 = -0.05062012;
                        }
                    }
                } else {
                    if (input[0] < 0.9433962) {
                        var29 = -0.15771484;
                    } else {
                        if (input[0] < 0.9622642) {
                            var29 = -0.030664062;
                        } else {
                            var29 = 0.034375;
                        }
                    }
                }
            }
        } else {
            if (input[2] < 0.85714287) {
                if (input[3] < 0.5243902) {
                    var29 = 0.101790376;
                } else {
                    if (input[3] < 0.74390244) {
                        if (input[4] < 0.7605634) {
                            var29 = -0.043683898;
                        } else {
                            var29 = 0.04253998;
                        }
                    } else {
                        var29 = 0.03378067;
                    }
                }
            } else {
                if (input[0] < 0.094339624) {
                    if (input[1] < 0.6666667) {
                        var29 = 0.036621094;
                    } else {
                        var29 = 0.022363283;
                    }
                } else {
                    var29 = 0.08601218;
                }
            }
        }
    }
    double var30;
    if (input[4] < 0.943662) {
        if (input[4] < 0.91549295) {
            if (input[5] < 0.13125) {
                if (input[1] < 0.6666667) {
                    var30 = 0.067712404;
                } else {
                    if (input[0] < 0.9056604) {
                        var30 = 0.022366334;
                    } else {
                        var30 = 0.010529642;
                    }
                }
            } else {
                if (input[3] < 0.35365853) {
                    if (input[3] < 0.29268292) {
                        if (input[4] < 0.52112675) {
