double predictIotmentalhealth(List<double> input) {
    double var0;
    if (input[2] <= 0.40268075466156006) {
        if (input[1] <= 0.9849933683872223) {
            if (input[3] <= 0.4205325245857239) {
                if (input[3] <= 0.41132181882858276) {
                    if (input[0] <= 0.7812200486660004) {
                        if (input[0] <= 0.48316138982772827) {
                            if (input[1] <= 0.48573680222034454) {
                                if (input[3] <= 0.17139557749032974) {
                                    if (input[3] <= 0.13632015511393547) {
                                        var0 = 46.0;
                                    } else {
                                        var0 = 26.0;
                                    }
                                } else {
                                    if (input[0] <= 0.3469233065843582) {
                                        if (input[3] <= 0.202056884765625) {
                                            var0 = 49.0;
                                        } else {
                                            var0 = 59.0;
                                        }
                                    } else {
                                        if (input[3] <= 0.27186504006385803) {
                                            var0 = 41.0;
                                        } else {
                                            var0 = 52.42857142857143;
                                        }
                                    }
                                }
                            } else {
                                if (input[3] <= 0.162116177380085) {
                                    if (input[2] <= 0.2276529222726822) {
                                        if (input[2] <= 0.2016342207789421) {
                                            var0 = 48.0;
                                        } else {
                                            var0 = 51.0;
                                        }
                                    } else {
                                        if (input[3] <= 0.04222966730594635) {
                                            var0 = 58.0;
                                        } else {
                                            var0 = 54.0;
                                        }
                                    }
                                } else {
                                    if (input[1] <= 0.800083190202713) {
                                        if (input[0] <= 0.46200433373451233) {
                                            var0 = 34.0;
                                        } else {
                                            var0 = 48.6;
                                        }
                                    } else {
                                        if (input[0] <= 0.3937414437532425) {
                                            var0 = 59.0;
                                        } else {
                                            var0 = 55.0;
                                        }
                                    }
                                }
                            }
                        } else {
                            if (input[2] <= 0.37198901176452637) {
                                if (input[0] <= 0.4955262392759323) {
                                    var0 = 25.0;
                                } else {
                                    if (input[1] <= 0.3577141910791397) {
                                        if (input[1] <= 0.30316290259361267) {
                                            var0 = 39.0;
                                        } else {
                                            var0 = 29.0;
                                        }
                                    } else {
                                        if (input[1] <= 0.6972040832042694) {
                                            var0 = 44.1;
                                        } else {
                                            var0 = 37.0;
                                        }
                                    }
                                }
                            } else {
                                if (input[0] <= 0.5457373559474945) {
                                    if (input[3] <= 0.2317468822002411) {
                                        var0 = 19.0;
                                    } else {
                                        var0 = 23.0;
                                    }
                                } else {
                                    if (input[2] <= 0.3762040287256241) {
                                        var0 = 26.0;
                                    } else {
                                        if (input[1] <= 0.5899312198162079) {
                                            var0 = 32.0;
                                        } else {
                                            var0 = 29.0;
                                        }
                                    }
                                }
                            }
                        }
                    } else {
                        if (input[2] <= 0.3175048530101776) {
                            var0 = 67.0;
                        } else {
                            var0 = 53.0;
                        }
                    }
                } else {
                    if (input[0] <= 0.3364139199256897) {
                        var0 = 15.0;
                    } else {
                        var0 = 23.0;
                    }
                }
            } else {
                if (input[0] <= 0.5748245418071747) {
                    if (input[1] <= 0.8049611151218414) {
                        if (input[0] <= 0.5341576039791107) {
                            if (input[1] <= 0.4322025775909424) {
                                if (input[0] <= 0.15982074290513992) {
                                    if (input[3] <= 0.5328877866268158) {
                                        if (input[1] <= 0.31992679834365845) {
                                            var0 = 30.0;
                                        } else {
                                            var0 = 25.0;
                                        }
                                    } else {
                                        var0 = 58.0;
                                    }
                                } else {
                                    if (input[0] <= 0.16537907719612122) {
                                        var0 = 58.0;
                                    } else {
                                        if (input[0] <= 0.2769884020090103) {
                                            var0 = 38.2;
                                        } else {
                                            var0 = 45.45454545454545;
                                        }
                                    }
                                }
                            } else {
                                if (input[1] <= 0.7467363178730011) {
                                    if (input[2] <= 0.270224466919899) {
                                        if (input[3] <= 0.7446574866771698) {
                                            var0 = 46.888888888888886;
                                        } else {
                                            var0 = 38.333333333333336;
                                        }
                                    } else {
                                        if (input[2] <= 0.29843172430992126) {
                                            var0 = 58.63636363636363;
                                        } else {
                                            var0 = 51.19444444444444;
                                        }
                                    }
                                } else {
                                    if (input[2] <= 0.32654009759426117) {
                                        if (input[0] <= 0.31260716170072556) {
                                            var0 = 66.0;
                                        } else {
                                            var0 = 64.0;
                                        }
                                    } else {
                                        var0 = 78.0;
                                    }
                                }
                            }
                        } else {
                            if (input[0] <= 0.5644026696681976) {
                                if (input[2] <= 0.3724375516176224) {
                                    if (input[3] <= 0.5358729362487793) {
                                        if (input[2] <= 0.33613690733909607) {
                                            var0 = 51.0;
                                        } else {
                                            var0 = 50.0;
                                        }
                                    } else {
                                        if (input[2] <= 0.20821836590766907) {
                                            var0 = 56.666666666666664;
                                        } else {
                                            var0 = 62.0;
                                        }
                                    }
                                } else {
                                    var0 = 72.0;
                                }
                            } else {
                                if (input[1] <= 0.2847103998064995) {
                                    var0 = 66.0;
                                } else {
                                    var0 = 69.0;
                                }
                            }
                        }
                    } else {
                        if (input[2] <= 0.25011757016181946) {
                            var0 = 39.0;
                        } else {
                            if (input[2] <= 0.3393128961324692) {
                                var0 = 23.0;
                            } else {
                                var0 = 22.0;
                            }
                        }
                    }
                } else {
                    if (input[2] <= 0.3271894007921219) {
                        if (input[0] <= 0.6178941130638123) {
                            if (input[3] <= 0.7390924692153931) {
                                if (input[3] <= 0.6593135893344879) {
                                    if (input[1] <= 0.7431789636611938) {
                                        if (input[3] <= 0.46888384222984314) {
                                            var0 = 35.0;
                                        } else {
                                            var0 = 31.5;
                                        }
                                    } else {
                                        var0 = 25.0;
                                    }
                                } else {
                                    var0 = 10.0;
                                }
                            } else {
                                if (input[1] <= 0.43060511350631714) {
                                    var0 = 39.0;
                                } else {
                                    var0 = 50.0;
                                }
                            }
                        } else {
                            if (input[3] <= 0.49971726536750793) {
                                if (input[3] <= 0.474991112947464) {
                                    if (input[0] <= 0.7888103425502777) {
                                        var0 = 47.0;
                                    } else {
                                        var0 = 46.0;
                                    }
                                } else {
                                    if (input[1] <= 0.49052563309669495) {
                                        var0 = 26.0;
                                    } else {
                                        var0 = 29.0;
                                    }
                                }
                            } else {
                                if (input[1] <= 0.6698634922504425) {
                                    if (input[3] <= 0.5171655714511871) {
                                        var0 = 63.0;
                                    } else {
                                        if (input[3] <= 0.5326879620552063) {
                                            var0 = 30.0;
                                        } else {
                                            var0 = 54.73684210526316;
                                        }
                                    }
                                } else {
                                    if (input[0] <= 0.7533048689365387) {
                                        if (input[1] <= 0.7591187655925751) {
                                            var0 = 39.75;
                                        } else {
                                            var0 = 30.0;
                                        }
                                    } else {
                                        if (input[0] <= 0.8733437955379486) {
                                            var0 = 56.0;
                                        } else {
                                            var0 = 58.0;
                                        }
                                    }
                                }
                            }
                        }
                    } else {
                        if (input[3] <= 0.7071197628974915) {
                            if (input[3] <= 0.4989802688360214) {
                                if (input[0] <= 0.7085615694522858) {
                                    if (input[0] <= 0.6975915729999542) {
                                        var0 = 32.0;
                                    } else {
                                        var0 = 43.0;
                                    }
                                } else {
                                    var0 = 58.0;
                                }
                            } else {
                                if (input[3] <= 0.5999273359775543) {
                                    if (input[1] <= 0.5655675828456879) {
                                        if (input[2] <= 0.3504171669483185) {
                                            var0 = 27.4;
                                        } else {
                                            var0 = 30.6;
                                        }
                                    } else {
                                        if (input[1] <= 0.6608302593231201) {
                                            var0 = 46.0;
                                        } else {
                                            var0 = 35.5;
                                        }
                                    }
                                } else {
                                    if (input[3] <= 0.6854487657546997) {
                                        if (input[1] <= 0.6510067284107208) {
                                            var0 = 24.5;
                                        } else {
                                            var0 = 19.0;
                                        }
                                    } else {
                                        var0 = 29.0;
                                    }
                                }
                            }
                        } else {
                            if (input[2] <= 0.3613133579492569) {
                                if (input[1] <= 0.5574064999818802) {
                                    var0 = 41.0;
                                } else {
                                    var0 = 29.0;
                                }
                            } else {
                                var0 = 60.0;
                            }
                        }
                    }
                }
            }
        } else {
            var0 = 2.0;
        }
    } else {
        if (input[0] <= 0.7661752998828888) {
            if (input[2] <= 0.635752260684967) {
                if (input[3] <= 0.9090880453586578) {
                    if (input[2] <= 0.6351744532585144) {
                        if (input[1] <= 0.37495872378349304) {
                            if (input[1] <= 0.2886093705892563) {
                                if (input[1] <= 0.07932994700968266) {
                                    if (input[2] <= 0.4328547418117523) {
                                        var0 = 26.0;
                                    } else {
                                        var0 = 18.0;
                                    }
                                } else {
                                    if (input[0] <= 0.3222167491912842) {
                                        if (input[0] <= 0.18016482144594193) {
                                            var0 = 38.666666666666664;
                                        } else {
                                            var0 = 22.625;
                                        }
                                    } else {
                                        if (input[1] <= 0.14782942831516266) {
                                            var0 = 55.666666666666664;
                                        } else {
                                            var0 = 35.5;
                                        }
                                    }
                                }
                            } else {
                                if (input[3] <= 0.7028836011886597) {
                                    if (input[2] <= 0.6082914173603058) {
                                        if (input[0] <= 0.27849483489990234) {
                                            var0 = 31.666666666666668;
                                        } else {
                                            var0 = 41.4390243902439;
                                        }
                                    } else {
                                        if (input[0] <= 0.2830139137804508) {
                                            var0 = 62.0;
                                        } else {
                                            var0 = 49.333333333333336;
                                        }
                                    }
                                } else {
                                    if (input[3] <= 0.7855502963066101) {
                                        if (input[1] <= 0.34047140181064606) {
                                            var0 = 53.25;
                                        } else {
                                            var0 = 66.0;
                                        }
                                    } else {
                                        if (input[0] <= 0.526164710521698) {
                                            var0 = 35.0;
                                        } else {
                                            var0 = 44.6;
                                        }
                                    }
                                }
                            }
                        } else {
                            if (input[2] <= 0.5910187065601349) {
                                if (input[3] <= 0.7334911525249481) {
                                    if (input[1] <= 0.532242625951767) {
                                        if (input[3] <= 0.23295950144529343) {
                                            var0 = 46.1;
                                        } else {
                                            var0 = 32.48863636363637;
                                        }
                                    } else {
                                        if (input[1] <= 0.7011755704879761) {
                                            var0 = 42.02325581395349;
                                        } else {
                                            var0 = 35.55555555555556;
                                        }
                                    }
                                } else {
                                    if (input[2] <= 0.4584740698337555) {
                                        if (input[0] <= 0.4378674030303955) {
                                            var0 = 30.0;
                                        } else {
                                            var0 = 49.0;
                                        }
                                    } else {
                                        if (input[3] <= 0.8408919870853424) {
                                            var0 = 20.235294117647058;
                                        } else {
                                            var0 = 35.333333333333336;
                                        }
                                    }
                                }
                            } else {
                                if (input[0] <= 0.7412692904472351) {
                                    if (input[2] <= 0.5983559191226959) {
                                        if (input[1] <= 0.7177041471004486) {
                                            var0 = 18.833333333333332;
                                        } else {
                                            var0 = 23.0;
                                        }
                                    } else {
                                        if (input[1] <= 0.6482636034488678) {
                                            var0 = 30.192307692307693;
                                        } else {
                                            var0 = 45.0;
                                        }
                                    }
                                } else {
                                    var0 = 8.0;
                                }
                            }
                        }
                    } else {
                        if (input[2] <= 0.6352899372577667) {
                            var0 = 55.0;
                        } else {
                            var0 = 38.0;
                        }
                    }
                } else {
                    if (input[0] <= 0.2961517721414566) {
                        var0 = 61.0;
                    } else {
                        if (input[3] <= 0.9149957597255707) {
                            var0 = 49.0;
                        } else {
                            if (input[0] <= 0.3413672149181366) {
                                var0 = 45.0;
                            } else {
                                var0 = 41.0;
                            }
                        }
                    }
                }
            } else {
                if (input[3] <= 0.9030608534812927) {
                    if (input[3] <= 0.21857330203056335) {
                        if (input[1] <= 0.5469372123479843) {
                            if (input[0] <= 0.6126696467399597) {
                                if (input[0] <= 0.5908287763595581) {
                                    if (input[3] <= 0.13069353252649307) {
                                        var0 = 51.0;
                                    } else {
                                        var0 = 54.0;
                                    }
                                } else {
                                    var0 = 58.0;
                                }
                            } else {
                                var0 = 25.0;
                            }
                        } else {
                            if (input[2] <= 0.787190854549408) {
                                if (input[3] <= 0.12799541279673576) {
                                    var0 = 33.0;
                                } else {
                                    var0 = 27.0;
                                }
                            } else {
                                var0 = 36.0;
                            }
                        }
                    } else {
                        if (input[2] <= 0.6404588222503662) {
                            if (input[1] <= 0.43610088527202606) {
                                var0 = 27.0;
                            } else {
                                if (input[3] <= 0.5364746451377869) {
                                    var0 = 12.0;
                                } else {
                                    var0 = 17.0;
                                }
                            }
                        } else {
                            if (input[1] <= 0.6762809157371521) {
                                if (input[1] <= 0.6653958857059479) {
                                    if (input[2] <= 0.8828927278518677) {
                                        if (input[2] <= 0.8582362234592438) {
                                            var0 = 31.893617021276597;
                                        } else {
                                            var0 = 45.0;
                                        }
                                    } else {
                                        if (input[1] <= 0.570369303226471) {
                                            var0 = 10.0;
                                        } else {
                                            var0 = 37.5;
                                        }
                                    }
                                } else {
                                    var0 = 9.0;
                                }
                            } else {
                                if (input[1] <= 0.7997394800186157) {
                                    if (input[1] <= 0.7545273900032043) {
                                        if (input[1] <= 0.7016178071498871) {
                                            var0 = 43.4;
                                        } else {
                                            var0 = 34.142857142857146;
                                        }
                                    } else {
                                        if (input[0] <= 0.43144263327121735) {
                                            var0 = 48.666666666666664;
                                        } else {
                                            var0 = 61.0;
                                        }
                                    }
                                } else {
                                    if (input[2] <= 0.6755460500717163) {
                                        if (input[1] <= 0.8209962546825409) {
                                            var0 = 34.0;
                                        } else {
                                            var0 = 37.0;
                                        }
                                    } else {
                                        if (input[1] <= 0.8321151435375214) {
                                            var0 = 28.0;
                                        } else {
                                            var0 = 31.25;
                                        }
                                    }
                                }
                            }
                        }
                    }
                } else {
                    if (input[0] <= 0.5985309183597565) {
                        if (input[2] <= 0.7960850596427917) {
                            var0 = 2.0;
                        } else {
                            var0 = 3.0;
                        }
                    } else {
                        var0 = 19.0;
                    }
                }
            }
        } else {
            if (input[2] <= 0.6168496310710907) {
                if (input[1] <= 0.49110013246536255) {
                    if (input[0] <= 0.938084214925766) {
                        if (input[1] <= 0.34046152234077454) {
                            var0 = 27.0;
                        } else {
                            if (input[1] <= 0.4506690204143524) {
                                if (input[0] <= 0.7864445447921753) {
                                    if (input[3] <= 0.5498231649398804) {
                                        var0 = 38.0;
                                    } else {
                                        if (input[0] <= 0.7735895216464996) {
                                            var0 = 42.0;
                                        } else {
                                            var0 = 43.0;
                                        }
                                    }
                                } else {
                                    if (input[3] <= 0.7224445044994354) {
                                        var0 = 33.0;
                                    } else {
                                        var0 = 39.0;
                                    }
                                }
                            } else {
                                var0 = 30.0;
                            }
                        }
                    } else {
                        var0 = 53.0;
                    }
                } else {
                    if (input[2] <= 0.4682476371526718) {
                        if (input[0] <= 0.8838584423065186) {
                            if (input[0] <= 0.777037501335144) {
                                var0 = 43.0;
                            } else {
                                if (input[2] <= 0.4619050621986389) {
                                    var0 = 41.0;
                                } else {
                                    var0 = 42.0;
                                }
                            }
                        } else {
                            var0 = 36.0;
                        }
                    } else {
                        if (input[2] <= 0.5443365275859833) {
                            if (input[3] <= 0.6008507460355759) {
                                if (input[2] <= 0.508112907409668) {
                                    var0 = 52.0;
                                } else {
                                    var0 = 48.0;
                                }
                            } else {
                                var0 = 57.0;
                            }
                        } else {
                            if (input[2] <= 0.5501945316791534) {
                                var0 = 38.0;
                            } else {
                                if (input[1] <= 0.6338750123977661) {
                                    var0 = 46.0;
                                } else {
                                    var0 = 43.0;
                                }
                            }
                        }
                    }
                }
            } else {
                if (input[0] <= 0.8044779300689697) {
                    if (input[0] <= 0.7746423780918121) {
                        if (input[2] <= 0.6815436780452728) {
                            var0 = 59.0;
                        } else {
                            var0 = 30.0;
                        }
                    } else {
                        if (input[2] <= 0.7040037512779236) {
                            if (input[1] <= 0.6803000569343567) {
                                var0 = 51.0;
                            } else {
                                var0 = 55.0;
                            }
                        } else {
                            var0 = 61.0;
                        }
                    }
                } else {
                    if (input[3] <= 0.3551887571811676) {
                        if (input[1] <= 0.3915194422006607) {
                            var0 = 39.0;
                        } else {
                            var0 = 44.0;
                        }
                    } else {
                        if (input[0] <= 0.8213725984096527) {
                            if (input[1] <= 0.3634258061647415) {
                                var0 = 40.0;
                            } else {
                                var0 = 45.0;
                            }
                        } else {
                            if (input[3] <= 0.90594482421875) {
                                if (input[1] <= 0.3216671720147133) {
                                    var0 = 49.0;
                                } else {
                                    var0 = 48.0;
                                }
                            } else {
                                var0 = 45.0;
                            }
                        }
                    }
                }
            }
        }
    }
    double var1;
    if (input[2] <= 0.395535483956337) {
        if (input[3] <= 0.4503384083509445) {
            if (input[0] <= 0.7507261633872986) {
                if (input[2] <= 0.2556949704885483) {
                    if (input[0] <= 0.673597514629364) {
                        if (input[0] <= 0.32538966834545135) {
                            if (input[0] <= 0.27829769253730774) {
                                var1 = 48.0;
                            } else {
                                var1 = 58.0;
                            }
                        } else {
                            if (input[0] <= 0.3489464521408081) {
                                var1 = 28.0;
                            } else {
                                if (input[0] <= 0.502372220158577) {
                                    if (input[0] <= 0.3838207274675369) {
                                        var1 = 49.0;
                                    } else {
                                        var1 = 51.0;
                                    }
                                } else {
                                    if (input[0] <= 0.5943953096866608) {
                                        if (input[1] <= 0.5630850791931152) {
                                            var1 = 43.0;
                                        } else {
                                            var1 = 37.0;
                                        }
                                    } else {
                                        var1 = 45.0;
                                    }
                                }
                            }
                        }
                    } else {
                        var1 = 29.0;
                    }
                } else {
                    if (input[2] <= 0.3318014144897461) {
                        if (input[2] <= 0.31279096007347107) {
                            if (input[1] <= 0.38489024341106415) {
                                if (input[1] <= 0.3107236325740814) {
                                    var1 = 42.0;
                                } else {
                                    var1 = 43.0;
                                }
                            } else {
                                if (input[1] <= 0.5715980231761932) {
                                    if (input[0] <= 0.4149683117866516) {
                                        var1 = 29.0;
                                    } else {
                                        if (input[1] <= 0.4769894629716873) {
                                            var1 = 25.0;
                                        } else {
                                            var1 = 26.5;
                                        }
                                    }
                                } else {
                                    if (input[2] <= 0.29023274779319763) {
                                        if (input[0] <= 0.6027113795280457) {
                                            var1 = 40.833333333333336;
                                        } else {
                                            var1 = 25.0;
                                        }
                                    } else {
                                        if (input[1] <= 0.6576682925224304) {
                                            var1 = 21.0;
                                        } else {
                                            var1 = 32.0;
                                        }
                                    }
                                }
                            }
                        } else {
                            if (input[3] <= 0.33555394411087036) {
                                if (input[2] <= 0.32286137342453003) {
                                    var1 = 27.0;
                                } else {
                                    var1 = 26.0;
                                }
                            } else {
                                var1 = 15.0;
                            }
                        }
                    } else {
                        if (input[0] <= 0.5710516273975372) {
                            if (input[1] <= 0.7495946288108826) {
                                if (input[2] <= 0.35848669707775116) {
                                    if (input[3] <= 0.4373209774494171) {
                                        if (input[3] <= 0.26916469633579254) {
                                            var1 = 40.6;
                                        } else {
                                            var1 = 49.0;
                                        }
                                    } else {
                                        var1 = 24.0;
                                    }
                                } else {
                                    if (input[0] <= 0.49911990761756897) {
                                        if (input[0] <= 0.20448298007249832) {
                                            var1 = 62.0;
                                        } else {
                                            var1 = 52.333333333333336;
                                        }
                                    } else {
                                        if (input[3] <= 0.3373580500483513) {
                                            var1 = 63.0;
                                        } else {
                                            var1 = 61.0;
                                        }
                                    }
                                }
                            } else {
                                var1 = 19.0;
                            }
                        } else {
                            if (input[2] <= 0.36433249711990356) {
                                if (input[1] <= 0.4180085062980652) {
                                    if (input[2] <= 0.3430199921131134) {
                                        var1 = 40.0;
                                    } else {
                                        var1 = 38.0;
                                    }
                                } else {
                                    if (input[3] <= 0.30703622102737427) {
                                        var1 = 42.0;
                                    } else {
                                        var1 = 43.0;
                                    }
                                }
                            } else {
                                if (input[0] <= 0.5797874331474304) {
                                    var1 = 26.0;
                                } else {
                                    if (input[1] <= 0.5899312198162079) {
                                        if (input[3] <= 0.32297690212726593) {
                                            var1 = 32.0;
                                        } else {
                                            var1 = 31.0;
                                        }
                                    } else {
                                        var1 = 29.0;
                                    }
                                }
                            }
                        }
                    }
                }
            } else {
                if (input[0] <= 0.877946525812149) {
                    if (input[1] <= 0.6252042055130005) {
                        var1 = 54.0;
                    } else {
                        var1 = 53.0;
                    }
                } else {
                    var1 = 67.0;
                }
            }
        } else {
            if (input[3] <= 0.4553944170475006) {
                if (input[0] <= 0.44401299953460693) {
                    var1 = 64.0;
                } else {
                    var1 = 76.0;
                }
            } else {
                if (input[0] <= 0.40693534910678864) {
                    if (input[0] <= 0.37736107409000397) {
                        if (input[3] <= 0.7865942120552063) {
                            if (input[1] <= 0.5015757530927658) {
                                if (input[1] <= 0.14412645995616913) {
                                    var1 = 30.0;
                                } else {
                                    if (input[1] <= 0.41386234760284424) {
                                        if (input[1] <= 0.36047571897506714) {
                                            var1 = 53.0;
                                        } else {
                                            var1 = 48.0;
                                        }
                                    } else {
                                        if (input[2] <= 0.3623642921447754) {
                                            var1 = 66.33333333333333;
                                        } else {
                                            var1 = 55.0;
                                        }
                                    }
                                }
                            } else {
                                if (input[1] <= 0.536493182182312) {
                                    if (input[3] <= 0.5139097422361374) {
                                        var1 = 36.0;
                                    } else {
                                        var1 = 29.0;
                                    }
                                } else {
                                    if (input[3] <= 0.45732930302619934) {
                                        var1 = 57.0;
                                    } else {
                                        if (input[2] <= 0.24409219622612) {
                                            var1 = 41.125;
                                        } else {
                                            var1 = 50.333333333333336;
                                        }
                                    }
                                }
                            }
                        } else {
                            if (input[3] <= 0.8396830856800079) {
                                var1 = 35.0;
                            } else {
                                var1 = 34.0;
                            }
                        }
                    } else {
                        if (input[2] <= 0.29576238989830017) {
                            if (input[3] <= 0.7765606045722961) {
                                if (input[0] <= 0.3890012055635452) {
                                    var1 = 48.0;
                                } else {
                                    var1 = 47.0;
                                }
                            } else {
                                var1 = 61.0;
                            }
                        } else {
                            if (input[1] <= 0.7659697234630585) {
                                if (input[3] <= 0.6550637781620026) {
                                    if (input[1] <= 0.3131036274135113) {
                                        var1 = 67.0;
                                    } else {
                                        if (input[1] <= 0.5772432386875153) {
                                            var1 = 66.0;
                                        } else {
                                            var1 = 65.0;
                                        }
                                    }
                                } else {
                                    var1 = 78.0;
                                }
                            } else {
                                var1 = 44.0;
                            }
                        }
                    }
                } else {
                    if (input[0] <= 0.420976847410202) {
                        if (input[3] <= 0.6451446115970612) {
                            if (input[3] <= 0.5517261028289795) {
                                var1 = 22.0;
                            } else {
                                var1 = 20.0;
                            }
                        } else {
                            var1 = 17.0;
                        }
                    } else {
                        if (input[3] <= 0.4949675500392914) {
                            if (input[3] <= 0.476300448179245) {
                                if (input[1] <= 0.700049877166748) {
                                    if (input[3] <= 0.471608504652977) {
                                        if (input[3] <= 0.4569774717092514) {
                                            var1 = 50.0;
                                        } else {
                                            var1 = 47.0;
                                        }
                                    } else {
                                        if (input[2] <= 0.28161343932151794) {
                                            var1 = 55.0;
                                        } else {
                                            var1 = 53.0;
                                        }
                                    }
                                } else {
                                    if (input[1] <= 0.7963884770870209) {
                                        if (input[0] <= 0.5331683307886124) {
                                            var1 = 34.0;
                                        } else {
                                            var1 = 35.0;
                                        }
                                    } else {
                                        var1 = 46.0;
                                    }
                                }
                            } else {
                                if (input[0] <= 0.5571340024471283) {
                                    var1 = 56.0;
                                } else {
                                    if (input[2] <= 0.1405102238059044) {
                                        var1 = 31.0;
                                    } else {
                                        if (input[3] <= 0.49176155030727386) {
                                            var1 = 25.4;
                                        } else {
                                            var1 = 29.0;
                                        }
                                    }
                                }
                            }
                        } else {
                            if (input[3] <= 0.5054709315299988) {
                                if (input[1] <= 0.4409363865852356) {
                                    var1 = 71.0;
                                } else {
                                    var1 = 63.0;
                                }
                            } else {
                                if (input[1] <= 0.21046734601259232) {
                                    if (input[1] <= 0.15273399651050568) {
                                        var1 = 27.0;
                                    } else {
                                        var1 = 28.0;
                                    }
                                } else {
                                    if (input[0] <= 0.7136120498180389) {
                                        if (input[1] <= 0.7966601252555847) {
                                            var1 = 49.130434782608695;
                                        } else {
                                            var1 = 30.0;
                                        }
                                    } else {
                                        if (input[0] <= 0.8263230621814728) {
                                            var1 = 37.142857142857146;
                                        } else {
                                            var1 = 58.75;
                                        }
                                    }
                                }
                            }
                        }
                    }
                }
            }
        }
    } else {
        if (input[1] <= 0.23419907689094543) {
            if (input[1] <= 0.21844696253538132) {
                if (input[3] <= 0.35697318613529205) {
                    if (input[1] <= 0.13343720883131027) {
                        if (input[0] <= 0.5689953565597534) {
                            var1 = 23.0;
                        } else {
                            var1 = 18.0;
                        }
                    } else {
                        if (input[3] <= 0.33114880323410034) {
                            if (input[3] <= 0.21355652809143066) {
                                var1 = 31.0;
                            } else {
                                var1 = 38.0;
                            }
                        } else {
                            if (input[2] <= 0.4782752990722656) {
                                var1 = 22.0;
                            } else {
                                var1 = 27.0;
                            }
                        }
                    }
                } else {
                    if (input[2] <= 0.4690513163805008) {
                        if (input[3] <= 0.6870862245559692) {
                            if (input[0] <= 0.6482871472835541) {
                                if (input[2] <= 0.4299903064966202) {
                                    var1 = 57.0;
                                } else {
                                    var1 = 66.0;
                                }
                            } else {
                                if (input[0] <= 0.7105595469474792) {
                                    var1 = 50.0;
                                } else {
                                    var1 = 42.0;
                                }
                            }
                        } else {
                            var1 = 27.0;
                        }
                    } else {
                        if (input[3] <= 0.5708383917808533) {
                            if (input[2] <= 0.5028275847434998) {
                                var1 = 24.0;
                            } else {
                                if (input[3] <= 0.37208910286426544) {
                                    var1 = 51.0;
                                } else {
                                    if (input[3] <= 0.39419180154800415) {
                                        if (input[1] <= 0.1098578181117773) {
                                            var1 = 36.0;
                                        } else {
                                            var1 = 34.0;
                                        }
                                    } else {
                                        if (input[3] <= 0.4467128664255142) {
                                            var1 = 41.75;
                                        } else {
                                            var1 = 43.5;
                                        }
                                    }
                                }
                            }
                        } else {
                            if (input[3] <= 0.5792577862739563) {
                                var1 = 8.0;
                            } else {
                                if (input[0] <= 0.6337787508964539) {
                                    if (input[2] <= 0.5259298831224442) {
                                        var1 = 28.0;
                                    } else {
                                        var1 = 33.0;
                                    }
                                } else {
                                    var1 = 23.0;
                                }
                            }
                        }
                    }
                }
            } else {
                if (input[1] <= 0.22579222172498703) {
                    if (input[1] <= 0.22533290833234787) {
                        if (input[3] <= 0.4171149730682373) {
                            var1 = 17.0;
                        } else {
                            var1 = 11.0;
                        }
                    } else {
                        var1 = 3.0;
                    }
                } else {
                    if (input[2] <= 0.5004812180995941) {
                        if (input[2] <= 0.4855361878871918) {
                            var1 = 18.0;
                        } else {
                            var1 = 23.0;
                        }
                    } else {
                        if (input[3] <= 0.7448488175868988) {
                            var1 = 28.0;
                        } else {
                            var1 = 29.0;
                        }
                    }
                }
            }
        } else {
            if (input[3] <= 0.18757405877113342) {
                if (input[2] <= 0.7248793542385101) {
                    if (input[0] <= 0.5319094508886337) {
                        if (input[0] <= 0.4198783040046692) {
                            if (input[2] <= 0.5511282384395599) {
                                var1 = 35.0;
                            } else {
                                if (input[0] <= 0.37599411606788635) {
                                    if (input[3] <= 0.10828591883182526) {
                                        var1 = 51.0;
                                    } else {
                                        var1 = 48.0;
                                    }
                                } else {
                                    var1 = 59.0;
                                }
                            }
                        } else {
                            if (input[0] <= 0.46282583475112915) {
                                var1 = 19.0;
                            } else {
                                if (input[3] <= 0.1299295462667942) {
                                    var1 = 39.0;
                                } else {
                                    var1 = 40.0;
                                }
                            }
                        }
                    } else {
                        if (input[0] <= 0.6862373948097229) {
                            if (input[2] <= 0.6133078336715698) {
                                if (input[1] <= 0.48680588603019714) {
                                    var1 = 51.0;
                                } else {
                                    var1 = 49.0;
                                }
                            } else {
                                var1 = 54.0;
                            }
                        } else {
                            if (input[0] <= 0.7546535432338715) {
                                var1 = 59.0;
                            } else {
                                var1 = 68.0;
                            }
                        }
                    }
                } else {
                    if (input[2] <= 0.8728751838207245) {
                        var1 = 27.0;
                    } else {
                        var1 = 21.0;
                    }
                }
            } else {
                if (input[1] <= 0.28169645369052887) {
                    if (input[0] <= 0.39330659806728363) {
                        if (input[3] <= 0.4434029459953308) {
                            if (input[3] <= 0.38931162655353546) {
                                var1 = 54.0;
                            } else {
                                var1 = 42.0;
                            }
                        } else {
                            if (input[1] <= 0.26681123673915863) {
                                var1 = 16.0;
                            } else {
                                var1 = 22.0;
                            }
                        }
                    } else {
                        if (input[1] <= 0.2729590982198715) {
                            if (input[0] <= 0.6737099885940552) {
                                if (input[3] <= 0.4106074869632721) {
                                    if (input[0] <= 0.5874731540679932) {
                                        var1 = 39.0;
                                    } else {
                                        var1 = 36.0;
                                    }
                                } else {
                                    if (input[0] <= 0.5378748178482056) {
                                        if (input[1] <= 0.26835988461971283) {
                                            var1 = 47.666666666666664;
                                        } else {
                                            var1 = 45.0;
                                        }
                                    } else {
                                        if (input[0] <= 0.5946265757083893) {
                                            var1 = 55.0;
                                        } else {
                                            var1 = 56.0;
                                        }
                                    }
                                }
                            } else {
                                if (input[3] <= 0.5237265080213547) {
                                    var1 = 34.0;
                                } else {
                                    var1 = 39.0;
                                }
                            }
                        } else {
                            if (input[3] <= 0.6633874475955963) {
                                var1 = 61.0;
                            } else {
                                var1 = 58.0;
                            }
                        }
                    }
                } else {
                    if (input[0] <= 0.7610303461551666) {
                        if (input[0] <= 0.7561103403568268) {
                            if (input[2] <= 0.6570973098278046) {
                                if (input[3] <= 0.6368606388568878) {
                                    if (input[3] <= 0.6292403340339661) {
                                        if (input[0] <= 0.5022625923156738) {
                                            var1 = 38.95;
                                        } else {
                                            var1 = 34.9921875;
                                        }
                                    } else {
                                        if (input[2] <= 0.5448980927467346) {
                                            var1 = 26.0;
                                        } else {
                                            var1 = 14.833333333333334;
                                        }
                                    }
                                } else {
                                    if (input[2] <= 0.4679083079099655) {
                                        if (input[2] <= 0.4522653669118881) {
                                            var1 = 40.55555555555556;
                                        } else {
                                            var1 = 54.63636363636363;
                                        }
                                    } else {
                                        if (input[0] <= 0.7023043632507324) {
                                            var1 = 39.07954545454545;
                                        } else {
                                            var1 = 24.5;
                                        }
                                    }
                                }
                            } else {
                                if (input[3] <= 0.916696161031723) {
                                    if (input[0] <= 0.644297868013382) {
                                        if (input[0] <= 0.6234289109706879) {
                                            var1 = 34.25;
                                        } else {
                                            var1 = 51.0;
                                        }
                                    } else {
                                        if (input[2] <= 0.7011652886867523) {
                                            var1 = 14.333333333333334;
                                        } else {
                                            var1 = 30.75;
                                        }
                                    }
                                } else {
                                    var1 = 10.0;
                                }
                            }
                        } else {
                            var1 = 8.0;
                        }
                    } else {
                        if (input[2] <= 0.6108930706977844) {
                            if (input[1] <= 0.5646013021469116) {
                                if (input[0] <= 0.9532271027565002) {
                                    if (input[2] <= 0.4364805221557617) {
                                        if (input[3] <= 0.5635091066360474) {
                                            var1 = 28.0;
                                        } else {
                                            var1 = 30.0;
                                        }
                                    } else {
                                        if (input[0] <= 0.7864445447921753) {
                                            var1 = 41.333333333333336;
                                        } else {
                                            var1 = 32.333333333333336;
                                        }
                                    }
                                } else {
                                    var1 = 53.0;
                                }
                            } else {
                                if (input[0] <= 0.8323092460632324) {
                                    if (input[3] <= 0.5449082553386688) {
                                        var1 = 40.0;
                                    } else {
                                        if (input[2] <= 0.43222515285015106) {
                                            var1 = 43.0;
                                        } else {
                                            var1 = 41.5;
                                        }
                                    }
                                } else {
                                    var1 = 58.0;
                                }
                            }
                        } else {
                            if (input[0] <= 0.7699368298053741) {
                                if (input[0] <= 0.7664875984191895) {
                                    var1 = 52.0;
                                } else {
                                    var1 = 59.0;
                                }
                            } else {
                                if (input[2] <= 0.9117362201213837) {
                                    if (input[1] <= 0.5406345427036285) {
                                        if (input[1] <= 0.5131477415561676) {
                                            var1 = 44.07142857142857;
                                        } else {
                                            var1 = 29.0;
                                        }
                                    } else {
                                        if (input[1] <= 0.6332682371139526) {
                                            var1 = 47.666666666666664;
                                        } else {
                                            var1 = 55.0;
                                        }
                                    }
                                } else {
                                    if (input[1] <= 0.3180520236492157) {
                                        var1 = 30.0;
                                    } else {
                                        var1 = 20.0;
                                    }
                                }
                            }
                        }
                    }
                }
            }
        }
    }
    double var2;
    if (input[2] <= 0.40092833340168) {
        if (input[1] <= 0.857647031545639) {
            if (input[0] <= 0.5720363855361938) {
                if (input[0] <= 0.5292524099349976) {
                    if (input[3] <= 0.43224887549877167) {
                        if (input[2] <= 0.24803635478019714) {
                            if (input[3] <= 0.320146307349205) {
                                if (input[1] <= 0.49481095373630524) {
                                    if (input[0] <= 0.37340039014816284) {
                                        var2 = 58.0;
                                    } else {
                                        var2 = 63.0;
                                    }
                                } else {
                                    if (input[2] <= 0.21010560542345047) {
                                        if (input[0] <= 0.33486467599868774) {
                                            var2 = 48.0;
                                        } else {
                                            var2 = 51.0;
                                        }
                                    } else {
                                        var2 = 58.0;
                                    }
                                }
                            } else {
                                if (input[3] <= 0.3511003404855728) {
                                    var2 = 32.0;
                                } else {
                                    if (input[2] <= 0.1828790083527565) {
                                        if (input[2] <= 0.12833016365766525) {
                                            var2 = 49.0;
                                        } else {
                                            var2 = 43.0;
                                        }
                                    } else {
                                        var2 = 55.0;
                                    }
                                }
                            }
                        } else {
                            if (input[1] <= 0.3839406222105026) {
                                if (input[0] <= 0.5081661939620972) {
                                    if (input[2] <= 0.38327281177043915) {
                                        if (input[3] <= 0.3176705241203308) {
                                            var2 = 46.6;
                                        } else {
                                            var2 = 53.5;
                                        }
                                    } else {
                                        var2 = 62.0;
                                    }
                                } else {
                                    var2 = 23.0;
                                }
                            } else {
                                if (input[1] <= 0.5046383738517761) {
                                    if (input[1] <= 0.4121725857257843) {
                                        var2 = 36.0;
                                    } else {
                                        if (input[3] <= 0.40331123769283295) {
                                            var2 = 25.25;
                                        } else {
                                            var2 = 15.0;
                                        }
                                    }
                                } else {
                                    if (input[0] <= 0.3272557705640793) {
                                        if (input[1] <= 0.7107782363891602) {
                                            var2 = 54.0;
                                        } else {
                                            var2 = 59.0;
                                        }
                                    } else {
                                        if (input[3] <= 0.4112744927406311) {
                                            var2 = 37.54545454545455;
                                        } else {
                                            var2 = 25.666666666666668;
                                        }
                                    }
                                }
                            }
                        }
                    } else {
                        if (input[3] <= 0.45613962411880493) {
                            if (input[2] <= 0.2543976977467537) {
                                var2 = 43.0;
                            } else {
                                if (input[2] <= 0.3192219138145447) {
                                    var2 = 64.0;
                                } else {
                                    var2 = 76.0;
                                }
                            }
                        } else {
                            if (input[1] <= 0.8048028945922852) {
                                if (input[0] <= 0.4069215804338455) {
                                    if (input[0] <= 0.33612199127674103) {
                                        if (input[0] <= 0.07795126363635063) {
                                            var2 = 33.2;
                                        } else {
                                            var2 = 45.80555555555556;
                                        }
                                    } else {
                                        if (input[2] <= 0.26798899471759796) {
                                            var2 = 41.75;
                                        } else {
                                            var2 = 55.7;
                                        }
                                    }
                                } else {
                                    if (input[0] <= 0.42067742347717285) {
                                        if (input[2] <= 0.3059360235929489) {
                                            var2 = 17.0;
                                        } else {
                                            var2 = 20.0;
                                        }
                                    } else {
                                        if (input[0] <= 0.44314588606357574) {
                                            var2 = 38.0;
                                        } else {
                                            var2 = 49.42857142857143;
                                        }
                                    }
                                }
                            } else {
                                if (input[2] <= 0.3393128961324692) {
                                    var2 = 23.0;
                                } else {
                                    var2 = 22.0;
                                }
                            }
                        }
                    }
                } else {
                    if (input[2] <= 0.39595064520835876) {
                        if (input[1] <= 0.45286591351032257) {
                            if (input[1] <= 0.2809881418943405) {
                                if (input[0] <= 0.5439097881317139) {
                                    if (input[2] <= 0.19781939685344696) {
                                        var2 = 53.0;
                                    } else {
                                        var2 = 54.0;
                                    }
                                } else {
                                    var2 = 51.0;
                                }
                            } else {
                                if (input[0] <= 0.5564993321895599) {
                                    if (input[0] <= 0.5433165431022644) {
                                        var2 = 40.0;
                                    } else {
                                        var2 = 36.0;
                                    }
                                } else {
                                    var2 = 57.0;
                                }
                            }
                        } else {
                            if (input[0] <= 0.5599754452705383) {
                                if (input[2] <= 0.1627390868961811) {
                                    var2 = 46.0;
                                } else {
                                    if (input[0] <= 0.5359219312667847) {
                                        var2 = 68.0;
                                    } else {
                                        if (input[2] <= 0.2303333654999733) {
                                            var2 = 58.0;
                                        } else {
                                            var2 = 62.833333333333336;
                                        }
                                    }
                                }
                            } else {
                                if (input[3] <= 0.27791284024715424) {
                                    var2 = 37.0;
                                } else {
                                    var2 = 50.0;
                                }
                            }
                        }
                    } else {
                        if (input[0] <= 0.5622101426124573) {
                            var2 = 72.0;
                        } else {
                            var2 = 66.0;
                        }
                    }
                }
            } else {
                if (input[0] <= 0.8772308230400085) {
                    if (input[1] <= 0.24200255423784256) {
                        var2 = 71.0;
                    } else {
                        if (input[3] <= 0.7624510228633881) {
                            if (input[0] <= 0.7041030526161194) {
                                if (input[3] <= 0.4182926416397095) {
                                    if (input[2] <= 0.3858477622270584) {
                                        if (input[2] <= 0.38074466586112976) {
                                            var2 = 35.7;
                                        } else {
                                            var2 = 61.0;
                                        }
                                    } else {
                                        if (input[0] <= 0.6756804287433624) {
                                            var2 = 18.0;
                                        } else {
                                            var2 = 26.0;
                                        }
                                    }
                                } else {
                                    if (input[2] <= 0.22438940405845642) {
                                        if (input[3] <= 0.5959681421518326) {
                                            var2 = 27.0;
                                        } else {
                                            var2 = 10.0;
                                        }
                                    } else {
                                        if (input[3] <= 0.6989268660545349) {
                                            var2 = 29.0;
                                        } else {
                                            var2 = 37.333333333333336;
                                        }
                                    }
                                }
                            } else {
                                if (input[3] <= 0.6188203692436218) {
                                    if (input[1] <= 0.3579196184873581) {
                                        if (input[3] <= 0.4936390370130539) {
                                            var2 = 26.0;
                                        } else {
                                            var2 = 30.0;
                                        }
                                    } else {
                                        if (input[2] <= 0.24193891882896423) {
                                            var2 = 58.666666666666664;
                                        } else {
                                            var2 = 42.15;
                                        }
                                    }
                                } else {
                                    if (input[3] <= 0.7101686596870422) {
                                        if (input[0] <= 0.7192295789718628) {
                                            var2 = 41.0;
                                        } else {
                                            var2 = 24.0;
                                        }
                                    } else {
                                        var2 = 45.0;
                                    }
                                }
                            }
                        } else {
                            if (input[1] <= 0.6873468160629272) {
                                if (input[2] <= 0.35771797597408295) {
                                    if (input[2] <= 0.32300643622875214) {
                                        if (input[0] <= 0.6295260488986969) {
                                            var2 = 49.5;
                                        } else {
                                            var2 = 52.6;
                                        }
                                    } else {
                                        var2 = 36.0;
                                    }
                                } else {
                                    var2 = 60.0;
                                }
                            } else {
                                var2 = 29.0;
                            }
                        }
                    }
                } else {
                    if (input[3] <= 0.5264279395341873) {
                        var2 = 67.0;
                    } else {
                        if (input[1] <= 0.7162569761276245) {
                            var2 = 61.0;
                        } else {
                            var2 = 58.0;
                        }
                    }
                }
            }
        } else {
            if (input[2] <= 0.3375212252140045) {
                if (input[0] <= 0.6849160492420197) {
                    if (input[0] <= 0.4927845150232315) {
                        var2 = 39.0;
                    } else {
                        var2 = 35.0;
                    }
                } else {
                    var2 = 56.0;
                }
            } else {
                if (input[1] <= 0.9312644004821777) {
                    if (input[0] <= 0.46214212477207184) {
                        var2 = 26.0;
                    } else {
                        var2 = 20.0;
                    }
                } else {
                    var2 = 2.0;
                }
            }
        }
    } else {
        if (input[2] <= 0.8622319102287292) {
            if (input[3] <= 0.05106300301849842) {
                if (input[2] <= 0.6288018822669983) {
                    if (input[3] <= 0.020302485674619675) {
                        var2 = 51.0;
                    } else {
                        var2 = 59.0;
                    }
                } else {
                    var2 = 51.0;
                }
            } else {
                if (input[3] <= 0.9164103865623474) {
                    if (input[1] <= 0.10828576236963272) {
                        if (input[3] <= 0.2844061702489853) {
                            var2 = 18.0;
                        } else {
                            if (input[3] <= 0.5648304522037506) {
                                if (input[0] <= 0.49923235177993774) {
                                    var2 = 26.0;
                                } else {
                                    var2 = 36.0;
                                }
                            } else {
                                var2 = 19.0;
                            }
                        }
                    } else {
                        if (input[2] <= 0.8489299714565277) {
                            if (input[3] <= 0.910912424325943) {
                                if (input[1] <= 0.8637946248054504) {
                                    if (input[0] <= 0.09028657153248787) {
                                        if (input[2] <= 0.572130411863327) {
                                            var2 = 55.333333333333336;
                                        } else {
                                            var2 = 44.57142857142857;
                                        }
                                    } else {
                                        if (input[0] <= 0.7670531868934631) {
                                            var2 = 35.6;
                                        } else {
                                            var2 = 40.94;
                                        }
                                    }
                                } else {
                                    if (input[0] <= 0.15071792528033257) {
                                        var2 = 22.0;
                                    } else {
                                        if (input[1] <= 0.9259823262691498) {
                                            var2 = 49.9;
                                        } else {
                                            var2 = 41.6;
                                        }
                                    }
                                }
                            } else {
                                if (input[1] <= 0.4494544714689255) {
                                    var2 = 58.0;
                                } else {
                                    if (input[3] <= 0.9149957597255707) {
                                        var2 = 49.0;
                                    } else {
                                        var2 = 45.0;
                                    }
                                }
                            }
                        } else {
                            if (input[0] <= 0.4874967485666275) {
                                if (input[3] <= 0.38330551981925964) {
                                    var2 = 54.0;
                                } else {
                                    if (input[1] <= 0.5629519820213318) {
                                        var2 = 49.0;
                                    } else {
                                        if (input[3] <= 0.4889645427465439) {
                                            var2 = 51.0;
                                        } else {
                                            var2 = 50.0;
                                        }
                                    }
                                }
                            } else {
                                var2 = 58.0;
                            }
                        }
                    }
                } else {
                    if (input[2] <= 0.5929152965545654) {
                        if (input[0] <= 0.4470707178115845) {
                            var2 = 41.0;
                        } else {
                            var2 = 37.0;
                        }
                    } else {
                        if (input[2] <= 0.7023625373840332) {
                            if (input[3] <= 0.9497751593589783) {
                                var2 = 10.0;
                            } else {
                                var2 = 19.0;
                            }
                        } else {
                            var2 = 2.0;
                        }
                    }
                }
            }
        } else {
            if (input[0] <= 0.8168605268001556) {
                if (input[0] <= 0.4788901209831238) {
                    if (input[1] <= 0.45887331664562225) {
                        var2 = 39.0;
                    } else {
                        if (input[1] <= 0.6726638078689575) {
                            if (input[2] <= 0.9594577550888062) {
                                var2 = 31.0;
                            } else {
                                var2 = 33.0;
                            }
                        } else {
                            var2 = 29.0;
                        }
                    }
                } else {
                    if (input[0] <= 0.6405658423900604) {
                        if (input[2] <= 0.8631856739521027) {
                            var2 = 20.0;
                        } else {
                            if (input[3] <= 0.7425641119480133) {
                                var2 = 1.0;
                            } else {
                                var2 = 3.0;
                            }
                        }
                    } else {
                        if (input[3] <= 0.3951810449361801) {
                            if (input[1] <= 0.5156615823507309) {
                                var2 = 30.0;
                            } else {
                                var2 = 28.0;
                            }
                        } else {
                            var2 = 20.0;
                        }
                    }
                }
            } else {
                var2 = 48.0;
            }
        }
    }
    double var3;
    if (input[2] <= 0.3980536162853241) {
        if (input[1] <= 0.9849933683872223) {
            if (input[2] <= 0.3962424099445343) {
                if (input[3] <= 0.5735679566860199) {
                    if (input[2] <= 0.17467983067035675) {
                        if (input[2] <= 0.16293677687644958) {
                            if (input[2] <= 0.14491674304008484) {
                                if (input[3] <= 0.4783013164997101) {
                                    if (input[2] <= 0.10680323094129562) {
                                        if (input[0] <= 0.3838207274675369) {
                                            var3 = 49.0;
                                        } else {
                                            var3 = 51.0;
                                        }
                                    } else {
                                        var3 = 31.0;
                                    }
                                } else {
                                    if (input[2] <= 0.07830770500004292) {
                                        if (input[0] <= 0.6448973417282104) {
                                            var3 = 53.0;
                                        } else {
                                            var3 = 56.0;
                                        }
                                    } else {
                                        var3 = 63.0;
                                    }
                                }
                            } else {
                                if (input[1] <= 0.3946183770895004) {
                                    var3 = 26.0;
                                } else {
                                    if (input[0] <= 0.576049417257309) {
                                        var3 = 36.0;
                                    } else {
                                        var3 = 41.0;
                                    }
                                }
                            }
                        } else {
                            if (input[0] <= 0.7064571380615234) {
                                if (input[0] <= 0.41446730494499207) {
                                    var3 = 58.0;
                                } else {
                                    var3 = 56.0;
                                }
                            } else {
                                var3 = 67.0;
                            }
                        }
                    } else {
                        if (input[3] <= 0.4934746325016022) {
                            if (input[3] <= 0.3757186532020569) {
                                if (input[0] <= 0.3679734766483307) {
                                    if (input[3] <= 0.3051558881998062) {
                                        if (input[1] <= 0.5867014527320862) {
                                            var3 = 24.666666666666668;
                                        } else {
                                            var3 = 28.0;
                                        }
                                    } else {
                                        var3 = 35.0;
                                    }
                                } else {
                                    if (input[1] <= 0.6918531060218811) {
                                        if (input[3] <= 0.33531634509563446) {
                                            var3 = 45.08571428571429;
                                        } else {
                                            var3 = 31.4;
                                        }
                                    } else {
                                        if (input[2] <= 0.33811990916728973) {
                                            var3 = 34.0;
                                        } else {
                                            var3 = 20.0;
                                        }
                                    }
                                }
                            } else {
                                if (input[0] <= 0.4650982767343521) {
                                    if (input[2] <= 0.3181471675634384) {
                                        if (input[3] <= 0.40286482870578766) {
                                            var3 = 32.0;
                                        } else {
                                            var3 = 45.714285714285715;
                                        }
                                    } else {
                                        if (input[1] <= 0.5758148431777954) {
                                            var3 = 56.92857142857143;
                                        } else {
                                            var3 = 47.6;
                                        }
                                    }
                                } else {
                                    if (input[3] <= 0.3966749757528305) {
                                        var3 = 64.0;
                                    } else {
                                        if (input[3] <= 0.47420744597911835) {
                                            var3 = 39.4;
                                        } else {
                                            var3 = 56.5;
                                        }
                                    }
                                }
                            }
                        } else {
                            if (input[2] <= 0.3783879280090332) {
                                if (input[2] <= 0.3028760552406311) {
                                    if (input[1] <= 0.6261618733406067) {
                                        if (input[2] <= 0.23097152262926102) {
                                            var3 = 41.666666666666664;
                                        } else {
                                            var3 = 53.75;
                                        }
                                    } else {
                                        if (input[2] <= 0.23197505623102188) {
                                            var3 = 35.0;
                                        } else {
                                            var3 = 29.0;
                                        }
                                    }
                                } else {
                                    if (input[0] <= 0.45173345506191254) {
                                        if (input[0] <= 0.3987821489572525) {
                                            var3 = 26.666666666666668;
                                        } else {
                                            var3 = 20.0;
                                        }
                                    } else {
                                        if (input[2] <= 0.3456032872200012) {
                                            var3 = 49.0;
                                        } else {
                                            var3 = 35.111111111111114;
                                        }
                                    }
                                }
                            } else {
                                if (input[2] <= 0.3843792527914047) {
                                    if (input[1] <= 0.4734371155500412) {
                                        var3 = 49.0;
                                    } else {
                                        var3 = 60.0;
                                    }
                                } else {
                                    if (input[0] <= 0.47203682363033295) {
                                        var3 = 38.0;
                                    } else {
                                        var3 = 45.0;
                                    }
                                }
                            }
                        }
                    }
                } else {
                    if (input[1] <= 0.7966601252555847) {
                        if (input[2] <= 0.3826075941324234) {
                            if (input[1] <= 0.19110526889562607) {
                                if (input[1] <= 0.10260261222720146) {
                                    if (input[3] <= 0.6608244776725769) {
                                        var3 = 37.0;
                                    } else {
                                        var3 = 45.0;
                                    }
                                } else {
                                    if (input[3] <= 0.6598787307739258) {
                                        var3 = 27.0;
                                    } else {
                                        var3 = 35.0;
                                    }
                                }
                            } else {
                                if (input[0] <= 0.39233504235744476) {
                                    if (input[0] <= 0.10239659249782562) {
                                        if (input[3] <= 0.7746568024158478) {
                                            var3 = 37.0;
                                        } else {
                                            var3 = 34.0;
                                        }
                                    } else {
                                        if (input[1] <= 0.7570459842681885) {
                                            var3 = 58.333333333333336;
                                        } else {
                                            var3 = 78.0;
                                        }
                                    }
                                } else {
                                    if (input[2] <= 0.30299046635627747) {
                                        if (input[3] <= 0.6877025365829468) {
                                            var3 = 59.05263157894737;
                                        } else {
                                            var3 = 47.92857142857143;
                                        }
                                    } else {
                                        if (input[2] <= 0.3559664636850357) {
                                            var3 = 40.333333333333336;
                                        } else {
                                            var3 = 53.11764705882353;
                                        }
                                    }
                                }
                            }
                        } else {
                            if (input[1] <= 0.39044003188610077) {
                                if (input[0] <= 0.5419549643993378) {
                                    var3 = 54.0;
                                } else {
                                    var3 = 42.0;
                                }
                            } else {
                                if (input[2] <= 0.38896116614341736) {
                                    var3 = 24.0;
                                } else {
                                    var3 = 33.0;
                                }
                            }
                        }
                    } else {
                        if (input[1] <= 0.8507423102855682) {
                            if (input[1] <= 0.8058287501335144) {
                                var3 = 19.0;
                            } else {
                                var3 = 23.0;
                            }
                        } else {
                            if (input[2] <= 0.30173319578170776) {
                                var3 = 26.0;
                            } else {
                                if (input[2] <= 0.336007222533226) {
                                    var3 = 35.0;
                                } else {
                                    var3 = 31.0;
                                }
                            }
                        }
                    }
                }
            } else {
                if (input[1] <= 0.38223255425691605) {
                    var3 = 66.0;
                } else {
